{"learner":{"attributes":{"scikit_learn":"{\"_estimator_type\": \"regressor\"}"},"feature_names":[],"feature_types":[],"gradient_booster":{"model":{"gbtree_model_param":{"num_parallel_tree":"1","num_trees":"330"},"iteration_indptr":[0,2,4,6,8,10,12,14,16,18,20,22,24,26,28,30,32,34,36,38,40,42,44,46,48,50,52,54,56,58,60,62,64,66,68,70,72,74,76,78,80,82,84,86,88,90,92,94,96,98,100,102,104,106,108,110,112,114,116,118,120,122,124,126,128,130,132,134,136,138,140,142,144,146,148,150,152,154,156,158,160,162,164,166,168,170,172,174,176,178,180,182,184,186,188,190,192,194,196,198,200,202,204,206,208,210,212,214,216,218,220,222,224,226,228,230,232,234,236,238,240,242,244,246,248,250,252,254,256,258,260,262,264,266,268,270,272,274,276,278,280,282,284,286,288,290,292,294,296,298,300,302,304,306,308,310,312,314,316,318,320,322,324,326,328,330],"tree_info":[0,1,0,1,0,1,0,1,0,1,0,1,0,1,0,1,0,1,0,1,0,1,0,1,0,1,0,1,0,1,0,1,0,1,0,1,0,1,0,1,0,1,0,1,0,1,0,1,0,1,0,1,0,1,0,1,0,1,0,1,0,1,0,1,0,1,0,1,0,1,0,1,0,1,0,1,0,1,0,1,0,1,0,1,0,1,0,1,0,1,0,1,0,1,0,1,0,1,0,1,0,1,0,1,0,1,0,1,0,1,0,1,0,1,0,1,0,1,0,1,0,1,0,1,0,1,0,1,0,1,0,1,0,1,0,1,0,1,0,1,0,1,0,1,0,1,0,1,0,1,0,1,0,1,0,1,0,1,0,1,0,1,0,1,0,1,0,1,0,1,0,1,0,1,0,1,0,1,0,1,0,1,0,1,0,1,0,1,0,1,0,1,0,1,0,1,0,1,0,1,0,1,0,1,0,1,0,1,0,1,0,1,0,1,0,1,0,1,0,1,0,1,0,1,0,1,0,1,0,1,0,1,0,1,0,1,0,1,0,1,0,1,0,1,0,1,0,1,0,1,0,1,0,1,0,1,0,1,0,1,0,1,0,1,0,1,0,1,0,1,0,1,0,1,0,1,0,1,0,1,0,1,0,1,0,1,0,1,0,1,0,1,0,1,0,1,0,1,0,1,0,1,0,1,0,1,0,1,0,1,0,1,0,1,0,1,0,1,0,1,0,1,0,1,0,1,0,1,0,1],"trees":[{"base_weights":[3.272345E1,4.7039597E1,2.9079329E1,6.2401386E1,4.391464E1,1.8517042E1,3.2352875E1,4.6102673E1,7.0613045E1,4.848468E1,4.043649E1,2.1401E1,1.3811538E1,3.1617348E1,5.2751373E1,5.3550392E1,2.6018332E1,7.1887314E1,4.9358856E1,3.3472298E1,4.9256218E1,3.931147E1,5.5638367E1,3.653332E1,2.0384394E1,1.3147642E1,2.9350052E1,3.43514E1,2.7014248E1,4.9925938E1,6.741111E1,5.8111538E1,4.9239807E1,4.0523182E1,2.1593903E1,1.0153548E2,7.118547E1,1.0433705E1,7.5325937E0,4.3600533E1,2.524906E1,4.8552532E1,6.2600414E1,3.920133E1,6.224483E1,5.0489597E1,6.013656E1,5.3380257E1,3.1399996E1,2.0268387E1,4.2825687E1,1.434816E1,1.1864902E1,9.584595E0,2.8199938E1,3.6138004E1,2.6409893E1,2.9563084E1,2.3617044E1,4.5793976E1,5.3157387E1,6.3542187E1,1.387407E1,7.3213267E0,6.0427826E1,4.585427E1,5.6848774E1,7.550345E0,2.339867E1,2.8100307E1,3.5709834E0,1.58198805E1,2.3975122E1,7.421866E1,6.734594E1,9.8819895E0,3.8265774E1,2.8333073E1,1.8979435E1,8.948244E0,4.709675E1,7.387116E1,1.059384E1,4.029139E1,3.7679806E1,7.543092E0,6.905729E1,9.207054E0,7.725834E0,6.102468E1,7.7137446E0,7.130307E0,6.4588715E1,2.2398266E1,3.910577E1,2.1234596E1,1.940899E1,6.5129685E0,1.1638151E1,3.4235003E0,1.3975962E1,1.2523862E1,1.1036109E1,3.51809E0,5.3794155E0,5.368261E1,3.596782E1,3.68561E1,2.278305E1,2.9226469E1,4.140314E1,2.3292246E1,3.573908E1,5.2749317E1,4.400888E1,1.0010022E1,5.0953407E1,1.2826459E1,1.0740117E1,6.444067E1,9.4258175E0,4.8742832E1,3.7211956E1,5.3172115E1,1.2401511E1,4.4867263E0,1.473203E0,5.3850975E0,2.3083808E0,1.128417E1,7.498601E1,6.785317E1,6.4548135E0,6.9718122E0,4.2696347E0,1.4589795E0,2.8568829E1,2.1291967E1,2.4829173E0,8.428019E0,8.078735E0,1.3581542E1,7.141292E0,4.019273E1,1.0767306E1,3.781844E1,2.8392437E1,1.2525056E1,4.619788E0,1.0783519E1,6.4230595E0,1.2030962E1,7.861353E0,2.9561666E1,2.143187E1,3.7293514E1,1.0607313E1,2.1025904E1,4.242512E0,2.0935658E1,1.9095093E1,1.3773686E1,1.8784367E1,1.2406556E1,2.795915E0,2.008727E0,1.8499259E0,4.3777863E1,5.6702057E1,3.6480843E1,3.27971E1,3.7489338E1,4.0766454E0,2.1919676E1,3.5959057E1,3.1007376E1,2.8217934E1,6.365023E0,8.905199E0,2.3180742E1,4.897341E0,3.1564358E1,7.6838927E0,5.492467E1,6.4437943E0,4.551133E1,3.7404423E1,9.989261E0,4.9481266E1,1.2158253E1,9.485251E0,7.487615E0,5.2065704E1,3.5535605E0,6.727526E0,8.492857E0,1.1885235E1,7.50542E1,4.4846654E0,6.853436E1,4.672319E1,5.7701464E0,4.6181417E0,3.4208066E0,5.3658323E0,4.0007557E1,8.511301E0,3.7708782E1,4.6997368E1,6.0651207E0,4.002988E0,6.2628145E0,3.515521E0,2.1951712E1,2.6631072E0,6.8877044E0,3.173594E1,3.8073263E0,3.6300752E0,3.3844388E0,3.7522023E0,1.896527E1,3.8636045E0,2.9068801E0,1.3651859E1,3.1397638E0,4.627351E0,2.7334542E0,2.1701639E0,6.5194764E0,9.056616E0,5.853032E1,6.9125166E0,3.556969E1,3.8720726E1,3.581957E1,2.8872753E1,5.6458344E1,3.716065E1,3.6664528E1,2.150263E1,5.067489E0,6.681886E0,5.656754E0,5.3450546E0,2.8830606E1,2.6827162E1,2.368496E1,2.2446678E1,8.864337E0,5.204421E0,6.157551E0,5.5916073E1,4.662937E1,6.9529214E0,4.711297E0,7.0859356E0,9.679877E0,4.699038E1,5.514873E0,9.325611E0,1.3205722E1,6.6587405E0,7.02238E1,6.078028E1,6.4358873E0,9.618635E0,7.2166767E0,6.93887E0,6.758026E0,6.510856E0,9.838615E0,6.199974E0,1.8679693E0,3.8849204E0,4.2510076E0,5.9698195E0,3.4148047E0,1.8393673E1,1.4075983E1,2.3146698E0,1.19408E1,5.559061E1,3.68666E1,3.4899464E1,3.84804E1,4.9950527E1,3.7682377E1,6.052545E0,2.8621916E1,7.6586595E0,1.0622028E1,4.8556776E0,4.9145555E0,3.7416862E1,3.836962E1,3.7978373E0,2.2819696E1,2.0873865E1,2.8561787E1,7.020846E0,2.668537E1,6.1713614E0,2.3908863E1,3.9474678E0,4.130544E0,2.2057747E1,7.8785787E0,1.0216473E1,7.653473E0,8.626395E0,7.7701116E0,8.758461E0,1.3010682E1,1.16476965E1,9.28563E0,1.2388648E1,5.5623937E0,3.221828E0,2.5174387E0,2.3558583E0,9.825561E0,3.5303206E0,6.4308486E0,7.0934157E0,5.9462276E0,6.2305107E0,6.7418885E0,9.2277355E0,8.175676E0,1.0079211E1,6.5476804E0,8.539318E0,5.783898E0,4.978346E0,6.533451E0,8.107288E0,3.0159032E0,6.8501496E0,3.981872E0,4.609447E0,3.7695212E0,3.5287871E0,5.961525E0,4.995716E0,4.7988243E0,4.5574045E0,4.267538E0,4.071259E0,3.8009026E0,4.1773124E0],"categories":[],"categories_nodes":[],"categories_segments":[],"categories_sizes":[],"default_left":[0,0,0,0,0,0,0,0,0,0,0,0,0,0,0,0,0,0,0,0,0,0,0,0,0,0,0,0,0,0,0,0,0,0,0,0,0,0,0,0,0,0,0,0,0,0,0,0,0,0,0,0,0,0,0,0,0,0,0,0,0,0,0,0,0,0,0,0,0,0,0,0,0,0,0,0,0,0,0,0,0,0,0,0,0,0,0,0,0,0,0,0,0,0,0,0,0,0,0,0,0,0,0,0,0,0,0,0,0,0,0,0,0,0,0,0,0,0,0,0,0,0,0,0,0,0,0,0,0,0,0,0,0,0,0,0,0,0,0,0,0,0,0,0,0,0,0,0,0,0,0,0,0,0,0,0,0,0,0,0,0,0,0,0,0,0,0,0,0,0,0,0,0,0,0,0,0,0,0,0,0,0,0,0,0,0,0,0,0,0,0,0,0,0,0,0,0,0,0,0,0,0,0,0,0,0,0,0,0,0,0,0,0,0,0,0,0,0,0,0,0,0,0,0,0,0,0,0,0,0,0,0,0,0,0,0,0,0,0,0,0,0,0,0,0,0,0,0,0,0,0,0,0,0,0,0,0,0,0,0,0,0,0,0,0,0,0,0,0,0,0,0,0,0,0,0,0,0,0,0,0,0,0,0,0,0,0,0,0,0,0,0,0,0,0,0,0,0,0,0,0,0,0,0,0,0,0,0,0,0,0,0,0,0,0,0,0,0,0,0,0,0,0,0,0,0,0,0,0,0,0,0,0,0,0,0,0,0,0,0,0,0,0,0,0,0,0,0,0,0,0],"id":0,"left_children":[1,3,5,7,9,11,13,15,17,19,21,23,25,27,29,31,33,35,37,39,41,43,45,47,49,51,53,55,57,59,61,63,65,67,69,71,73,-1,-1,75,77,79,81,83,85,87,89,91,93,95,97,99,101,-1,103,105,107,109,111,113,115,117,-1,-1,119,121,123,-1,125,127,-1,-1,-1,129,131,-1,133,135,137,-1,139,141,-1,143,145,-1,147,-1,-1,149,-1,-1,151,153,155,157,159,-1,-1,-1,161,163,165,-1,-1,167,169,171,173,175,177,179,181,183,185,-1,187,-1,-1,189,-1,191,193,195,-1,-1,-1,-1,-1,-1,197,199,-1,-1,-1,-1,201,203,-1,-1,-1,-1,-1,205,-1,207,209,-1,-1,-1,-1,-1,-1,211,213,215,-1,217,-1,219,221,223,225,227,-1,-1,-1,229,231,233,235,237,-1,239,241,243,245,-1,-1,247,-1,249,-1,251,-1,253,255,-1,257,-1,-1,-1,259,-1,-1,-1,-1,261,-1,263,265,-1,-1,-1,-1,267,-1,269,271,-1,-1,-1,-1,273,-1,-1,275,-1,-1,-1,-1,277,-1,-1,279,-1,-1,-1,-1,-1,-1,281,-1,283,285,287,289,291,293,295,297,-1,-1,-1,-1,299,301,303,305,-1,-1,-1,307,309,-1,-1,-1,-1,311,-1,-1,-1,-1,313,315,-1,-1,-1,-1,-1,-1,-1,-1,-1,-1,-1,-1,-1,317,319,-1,-1,321,323,325,327,329,331,-1,333,-1,-1,-1,-1,335,337,-1,339,341,343,-1,345,-1,347,-1,-1,349,-1,-1,-1,-1,-1,-1,-1,-1,-1,-1,-1,-1,-1,-1,-1,-1,-1,-1,-1,-1,-1,-1,-1,-1,-1,-1,-1,-1,-1,-1,-1,-1,-1,-1,-1,-1,-1,-1,-1,-1,-1,-1,-1,-1],"loss_changes":[2.50292E6,4.65852E5,1.322366E6,2.182705E5,1.27513E5,1.2265975E5,4.37198E5,8.183875E4,2.7597E4,3.95265E4,7.74005E4,8.587975E4,3.5260438E4,3.5421E5,4.017125E4,6.299E3,9.140992E3,1.7429E4,2.6886406E3,1.3724203E4,2.94855E4,9.434E3,5.5966875E3,2.9522E4,1.317575E4,4.970875E3,3.182711E3,2.50322E5,9.05575E4,1.001575E4,4.471125E3,5.9050625E3,3.9475938E3,8.553203E2,6.1714844E2,2.3155E3,8.9525E3,0E0,0E0,3.9342969E3,1.539293E3,9.56E3,1.792875E3,6.1975E3,8.9577344E2,5.66E2,8.705625E2,1.0210906E4,1.8315469E4,4.09125E3,2.1808633E3,3.0806875E3,7.7953125E2,0E0,2.3076797E3,4.199E4,1.2261575E5,2.321E4,1.724925E4,3.3810625E3,2.358625E3,3.5615625E2,0E0,0E0,2.6181875E3,2.6684062E3,1.0535469E3,0E0,3.4058105E1,4.161455E2,0E0,0E0,0E0,1.59425E3,5.578125E3,0E0,5.275156E2,1.4171484E2,1.850752E2,0E0,6.565E2,1.1330781E3,0E0,3.73E3,1.674E3,0E0,2.0704688E2,0E0,0E0,4.63125E1,0E0,0E0,1.5504531E3,4.945703E2,4.3258125E3,1.183625E3,1.083125E3,0E0,0E0,0E0,1.3800312E3,2.2273438E2,6.0351562E1,0E0,0E0,2.7055E3,2.256E4,6.717625E3,2.6986375E4,9.9665E3,6.8528125E3,1.85425E3,3.0886094E3,1.4553281E3,2.0443125E3,0E0,1.07325E3,0E0,0E0,3.0054688E3,0E0,9.679844E2,2.6027344E2,1.7666406E3,0E0,0E0,0E0,0E0,0E0,0E0,6.29E2,4.56625E3,0E0,0E0,0E0,0E0,9.9828125E1,3.1875E0,0E0,0E0,0E0,0E0,0E0,2.6595E3,0E0,7.56E2,5.1244727E2,0E0,0E0,0E0,0E0,0E0,0E0,3.5853125E2,1.6108203E2,7.128594E2,0E0,2.655E2,0E0,7.4046875E1,6.1025E2,3.69125E2,1.4321875E2,2.3515625E1,0E0,0E0,0E0,6.953594E2,1.9762188E3,2.4308E4,2.307475E4,3.781375E3,0E0,1.34675E4,1.5321562E3,8.90625E2,2.72075E3,0E0,0E0,1.2645E3,0E0,2.019E3,0E0,1.5048438E2,0E0,5.7415625E2,1.2100391E3,0E0,2.0215E3,0E0,0E0,0E0,4.7125E2,0E0,0E0,0E0,0E0,3.7475E2,0E0,3.216625E3,1.1138672E2,0E0,0E0,0E0,0E0,3.9475E2,0E0,3.4E1,8.224414E2,0E0,0E0,0E0,0E0,3.248828E1,0E0,0E0,1.4632422E2,0E0,0E0,0E0,0E0,3.713125E2,0E0,0E0,1.75125E2,0E0,0E0,0E0,0E0,0E0,0E0,4.480625E2,0E0,6.86E3,8.4835E3,2.124375E3,2.490625E3,4.7790234E2,1.2385E3,1.0856562E3,1.535E3,0E0,0E0,0E0,0E0,7.06125E3,7.999375E2,3.64875E2,4.103125E2,0E0,0E0,0E0,1.8484375E1,3.2353125E2,0E0,0E0,0E0,0E0,1.4178125E2,0E0,0E0,0E0,0E0,2.494375E3,4.1252188E3,0E0,0E0,0E0,0E0,0E0,0E0,0E0,0E0,0E0,0E0,0E0,0E0,0E0,4.1265625E2,2.859375E0,0E0,0E0,1.9785938E2,1.9215E3,2.727E3,4.2185E3,3.2895312E2,1.1100625E3,0E0,5.14375E2,0E0,0E0,0E0,0E0,5.65125E2,3.08625E2,0E0,2.109375E1,4.21875E2,1.1865E3,0E0,1.0725E2,0E0,2.55375E2,0E0,0E0,6.3325E2,0E0,0E0,0E0,0E0,0E0,0E0,0E0,0E0,0E0,0E0,0E0,0E0,0E0,0E0,0E0,0E0,0E0,0E0,0E0,0E0,0E0,0E0,0E0,0E0,0E0,0E0,0E0,0E0,0E0,0E0,0E0,0E0,0E0,0E0,0E0,0E0,0E0,0E0,0E0,0E0,0E0,0E0,0E0,0E0],"parents":[2147483647,0,0,1,1,2,2,3,3,4,4,5,5,6,6,7,7,8,8,9,9,10,10,11,11,12,12,13,13,14,14,15,15,16,16,17,17,18,18,19,19,20,20,21,21,22,22,23,23,24,24,25,25,26,26,27,27,28,28,29,29,30,30,31,31,32,32,33,33,34,34,35,35,36,36,39,39,40,40,41,41,42,42,43,43,44,44,45,45,46,46,47,47,48,48,49,49,50,50,51,51,52,52,54,54,55,55,56,56,57,57,58,58,59,59,60,60,61,61,64,64,65,65,66,66,68,68,69,69,73,73,74,74,76,76,77,77,78,78,80,80,81,81,83,83,84,84,86,86,89,89,92,92,93,93,94,94,95,95,96,96,100,100,101,101,102,102,105,105,106,106,107,107,108,108,109,109,110,110,111,111,112,112,113,113,114,114,116,116,119,119,121,121,122,122,123,123,130,130,131,131,136,136,137,137,143,143,145,145,146,146,153,153,154,154,155,155,157,157,159,159,160,160,161,161,162,162,163,163,167,167,168,168,169,169,170,170,171,171,173,173,174,174,175,175,176,176,179,179,181,181,183,183,185,185,186,186,188,188,192,192,197,197,199,199,200,200,205,205,207,207,208,208,213,213,216,216,221,221,224,224,231,231,233,233,234,234,235,235,236,236,237,237,238,238,239,239,240,240,245,245,246,246,247,247,248,248,252,252,253,253,258,258,263,263,264,264,278,278,279,279,282,282,283,283,284,284,285,285,286,286,287,287,289,289,294,294,295,295,297,297,298,298,299,299,301,301,303,303,306,306],"right_children":[2,4,6,8,10,12,14,16,18,20,22,24,26,28,30,32,34,36,38,40,42,44,46,48,50,52,54,56,58,60,62,64,66,68,70,72,74,-1,-1,76,78,80,82,84,86,88,90,92,94,96,98,100,102,-1,104,106,108,110,112,114,116,118,-1,-1,120,122,124,-1,126,128,-1,-1,-1,130,132,-1,134,136,138,-1,140,142,-1,144,146,-1,148,-1,-1,150,-1,-1,152,154,156,158,160,-1,-1,-1,162,164,166,-1,-1,168,170,172,174,176,178,180,182,184,186,-1,188,-1,-1,190,-1,192,194,196,-1,-1,-1,-1,-1,-1,198,200,-1,-1,-1,-1,202,204,-1,-1,-1,-1,-1,206,-1,208,210,-1,-1,-1,-1,-1,-1,212,214,216,-1,218,-1,220,222,224,226,228,-1,-1,-1,230,232,234,236,238,-1,240,242,244,246,-1,-1,248,-1,250,-1,252,-1,254,256,-1,258,-1,-1,-1,260,-1,-1,-1,-1,262,-1,264,266,-1,-1,-1,-1,268,-1,270,272,-1,-1,-1,-1,274,-1,-1,276,-1,-1,-1,-1,278,-1,-1,280,-1,-1,-1,-1,-1,-1,282,-1,284,286,288,290,292,294,296,298,-1,-1,-1,-1,300,302,304,306,-1,-1,-1,308,310,-1,-1,-1,-1,312,-1,-1,-1,-1,314,316,-1,-1,-1,-1,-1,-1,-1,-1,-1,-1,-1,-1,-1,318,320,-1,-1,322,324,326,328,330,332,-1,334,-1,-1,-1,-1,336,338,-1,340,342,344,-1,346,-1,348,-1,-1,350,-1,-1,-1,-1,-1,-1,-1,-1,-1,-1,-1,-1,-1,-1,-1,-1,-1,-1,-1,-1,-1,-1,-1,-1,-1,-1,-1,-1,-1,-1,-1,-1,-1,-1,-1,-1,-1,-1,-1,-1,-1,-1,-1,-1],"split_conditions":[-6.7500955E-1,-1.0049291E0,-5.3408164E-1,-5.3408164E-1,2.9693207E-1,5.941509E-1,7.362847E-1,5.2520324E-2,1E0,-5.3408164E-1,3.7789875E-1,3.365646E-1,-1.0559262E-1,3.9902726E-1,3.4397008E0,-1.1033249E0,2.6480854E-1,-1.5563838E0,-6.9422233E-1,5.2668774E-1,5.986756E-1,1E0,2.1200204E0,-4.2164707E-1,9.467524E-1,-1.947608E-1,4.2850393E-1,1.079645E0,5.8279425E-1,1.9372367E0,4.921547E0,-2.5132065E0,2.1200204E0,-9.723064E-1,-1.1781272E0,1.5387181E0,-1.0964237E0,1.0433705E1,7.5325937E0,-1.5708708E0,1E0,-1.4525551E0,-1.8413278E0,-9.505261E-1,-9.6251565E-1,-7.4650225E-4,5.084505E-1,1E0,-1.0559262E-1,-7.589045E-2,1.396889E0,-1.4040219E0,-8.0415875E-2,9.584595E0,-1.9605137E0,-2.5485656E0,-2.0280059E-1,-1.121651E-1,-1.1138033E-1,-1.9605137E0,-1.6297344E0,-1.160254E0,1.387407E1,7.3213267E0,9.533883E-1,-6.941314E-1,-3.98502E-1,7.550345E0,2.3448257E0,8.8231325E-1,3.5709834E0,1.58198805E1,2.3975122E1,-1.1945282E0,1E0,9.8819895E0,1E0,-1.5349602E0,8.731947E-1,8.948244E0,-1.2924721E0,-9.2799526E-1,1.059384E1,1E0,5.60081E-1,7.543092E0,-9.337734E-2,9.207054E0,7.725834E0,1.241479E0,7.7137446E0,7.130307E0,-1.3370979E0,7.075753E-2,3.0363717E0,1.6650432E-1,3.7167147E-1,6.5129685E0,1.1638151E1,3.4235003E0,3.3202904E-1,2.4098466E-1,-1.1808912E-2,3.51809E0,5.3794155E0,-1.0604901E0,1.058803E0,5.086946E-1,4.2404437E-1,3.392906E-2,-1.3370979E0,3.0098593E-1,-1.5708708E0,3.0784124E-1,1.0550092E0,1.0010022E1,-2.2818422E0,1.2826459E1,1.0740117E1,-2.1217005E-1,9.4258175E0,1.0554491E0,-3.490664E-1,2.2863824E0,1.2401511E1,4.4867263E0,1.473203E0,5.3850975E0,2.3083808E0,1.128417E1,1E0,1E0,6.4548135E0,6.9718122E0,4.2696347E0,1.4589795E0,8.804877E-1,-1.0559262E-1,2.4829173E0,8.428019E0,8.078735E0,1.3581542E1,7.141292E0,-1.1239572E-1,1.0767306E1,-1.1239572E-1,-4.763587E-1,1.2525056E1,4.619788E0,1.0783519E1,6.4230595E0,1.2030962E1,7.861353E0,1E0,1.0581568E-1,2.6088421E0,1.0607313E1,-1.4403024E-1,4.242512E0,-5.063729E-1,1.546894E-1,-1.1519421E0,7.362847E-1,-1.6297344E0,2.795915E0,2.008727E0,1.8499259E0,-1.1384318E-1,5.599157E-1,5.815952E-1,1.9841799E-1,-1.1519421E0,4.0766454E0,-1.6297344E0,-1.831479E-1,-1.21316984E-1,6.741686E-1,6.365023E0,8.905199E0,1.8242612E-1,4.897341E0,-1.7176008E0,7.6838927E0,3.0239928E-1,6.4437943E0,1.0630335E0,-5.7546884E-2,9.989261E0,-1.0143965E0,1.2158253E1,9.485251E0,7.487615E0,-1.1945282E0,3.5535605E0,6.727526E0,8.492857E0,1.1885235E1,3.1992235E0,4.4846654E0,1.2546915E-1,-9.30185E-1,5.7701464E0,4.6181417E0,3.4208066E0,5.3658323E0,-1.114661E0,8.511301E0,-1.0752741E0,2.3246884E-1,6.0651207E0,4.002988E0,6.2628145E0,3.515521E0,-2.846909E0,2.6631072E0,6.8877044E0,-8.782077E-1,3.8073263E0,3.6300752E0,3.3844388E0,3.7522023E0,-7.7506495E-3,3.8636045E0,2.9068801E0,-2.8623676E-1,3.1397638E0,4.627351E0,2.7334542E0,2.1701639E0,6.5194764E0,9.056616E0,-3.777127E-1,6.9125166E0,-1.620469E-2,-1.1239572E-1,5.60081E-1,-1.121651E-1,-7.68154E-1,-2.6336777E-1,-9.594001E-1,-1.620469E-2,5.067489E0,6.681886E0,5.656754E0,5.3450546E0,6.6596776E-1,-5.301558E-1,1.4491818E0,-1.2190497E0,8.864337E0,5.204421E0,6.157551E0,-1.5708708E0,1.212009E0,6.9529214E0,4.711297E0,7.0859356E0,9.679877E0,2.4532707E0,5.514873E0,9.325611E0,1.3205722E1,6.6587405E0,-6.2022406E-1,-1.13671295E-1,6.4358873E0,9.618635E0,7.2166767E0,6.93887E0,6.758026E0,6.510856E0,9.838615E0,6.199974E0,1.8679693E0,3.8849204E0,4.2510076E0,5.9698195E0,3.4148047E0,-1.2789513E0,2.1274142E0,2.3146698E0,1.19408E1,3.5343423E-1,1.8005674E-1,-3.2045558E-1,1E0,-1.4539843E0,-1.125172E-1,6.052545E0,5.141778E-1,7.6586595E0,1.0622028E1,4.8556776E0,4.9145555E0,8.829557E-2,-1.0448817E0,3.7978373E0,1.6650432E-1,1.0006313E0,-1.1242789E0,7.020846E0,-8.481415E-1,6.1713614E0,1E0,3.9474678E0,4.130544E0,4.19944E-1,7.8785787E0,1.0216473E1,7.653473E0,8.626395E0,7.7701116E0,8.758461E0,1.3010682E1,1.16476965E1,9.28563E0,1.2388648E1,5.5623937E0,3.221828E0,2.5174387E0,2.3558583E0,9.825561E0,3.5303206E0,6.4308486E0,7.0934157E0,5.9462276E0,6.2305107E0,6.7418885E0,9.2277355E0,8.175676E0,1.0079211E1,6.5476804E0,8.539318E0,5.783898E0,4.978346E0,6.533451E0,8.107288E0,3.0159032E0,6.8501496E0,3.981872E0,4.609447E0,3.7695212E0,3.5287871E0,5.961525E0,4.995716E0,4.7988243E0,4.5574045E0,4.267538E0,4.071259E0,3.8009026E0,4.1773124E0],"split_indices":[3,5,11,11,11,4,14,2,23,11,14,5,16,2,14,0,4,9,0,2,14,25,14,2,14,3,10,9,4,14,14,11,14,3,3,7,2,0,0,0,23,3,3,2,14,6,2,25,16,4,12,8,3,0,5,5,2,16,16,5,5,2,0,0,10,9,9,0,0,2,0,0,0,14,24,0,23,14,2,0,3,0,0,39,4,0,2,0,0,4,0,0,0,2,14,14,2,0,0,0,14,14,3,0,0,8,12,10,11,3,0,14,0,2,9,0,2,0,0,4,0,10,14,0,0,0,0,0,0,0,24,27,0,0,0,0,10,16,0,0,0,0,0,16,0,16,2,0,0,0,0,0,0,23,4,16,0,4,0,7,14,5,14,5,0,0,0,16,3,10,2,5,0,5,16,4,11,0,0,0,0,12,0,11,0,3,3,0,9,0,0,0,14,0,0,0,0,1,0,2,8,0,0,0,0,2,0,4,16,0,0,0,0,4,0,0,7,0,0,0,0,4,0,0,3,0,0,0,0,0,0,3,0,1,16,4,16,2,3,6,1,0,0,0,0,11,4,9,10,0,0,0,0,14,0,0,0,0,14,0,0,0,0,9,16,0,0,0,0,0,0,0,0,0,0,0,0,0,6,1,0,0,2,14,7,25,0,16,0,3,0,0,0,0,16,0,0,14,0,10,0,4,0,22,0,0,11,0,0,0,0,0,0,0,0,0,0,0,0,0,0,0,0,0,0,0,0,0,0,0,0,0,0,0,0,0,0,0,0,0,0,0,0,0,0,0,0,0,0,0,0],"split_type":[0,0,0,0,0,0,0,0,0,0,0,0,0,0,0,0,0,0,0,0,0,0,0,0,0,0,0,0,0,0,0,0,0,0,0,0,0,0,0,0,0,0,0,0,0,0,0,0,0,0,0,0,0,0,0,0,0,0,0,0,0,0,0,0,0,0,0,0,0,0,0,0,0,0,0,0,0,0,0,0,0,0,0,0,0,0,0,0,0,0,0,0,0,0,0,0,0,0,0,0,0,0,0,0,0,0,0,0,0,0,0,0,0,0,0,0,0,0,0,0,0,0,0,0,0,0,0,0,0,0,0,0,0,0,0,0,0,0,0,0,0,0,0,0,0,0,0,0,0,0,0,0,0,0,0,0,0,0,0,0,0,0,0,0,0,0,0,0,0,0,0,0,0,0,0,0,0,0,0,0,0,0,0,0,0,0,0,0,0,0,0,0,0,0,0,0,0,0,0,0,0,0,0,0,0,0,0,0,0,0,0,0,0,0,0,0,0,0,0,0,0,0,0,0,0,0,0,0,0,0,0,0,0,0,0,0,0,0,0,0,0,0,0,0,0,0,0,0,0,0,0,0,0,0,0,0,0,0,0,0,0,0,0,0,0,0,0,0,0,0,0,0,0,0,0,0,0,0,0,0,0,0,0,0,0,0,0,0,0,0,0,0,0,0,0,0,0,0,0,0,0,0,0,0,0,0,0,0,0,0,0,0,0,0,0,0,0,0,0,0,0,0,0,0,0,0,0,0,0,0,0,0,0,0,0,0,0,0,0,0,0,0,0,0,0,0,0,0,0,0,0],"sum_hessian":[4.7991E4,9.736E3,3.8255E4,1.644E3,8.092E3,9.052E3,2.9203E4,5.52E2,1.092E3,3.494E3,4.598E3,5.611E3,3.441E3,2.8188E4,1.015E3,4.02E2,1.5E2,1.029E3,6.3E1,1.72E2,3.322E3,4.283E3,3.15E2,3.52E2,5.259E3,3.301E3,1.4E2,1.7682E4,1.0506E4,8.53E2,1.62E2,1.92E2,2.1E2,3.4E1,1.16E2,2.2E1,1.007E3,2.3E1,4E1,7.6E1,9.6E1,3.158E3,1.64E2,4.264E3,1.9E1,1.5E2,1.65E2,8.1E1,2.71E2,5.233E3,2.6E1,1.702E3,1.599E3,5E0,1.35E2,1.4433E4,3.249E3,6E3,4.506E3,3.78E2,4.75E2,1.24E2,3.8E1,2.5E1,1.67E2,1.48E2,6.2E1,2.9E1,5E0,1.7E1,9.9E1,1.8E1,4E0,5.57E2,4.5E2,2.1E1,5.5E1,6.3E1,3.3E1,1.193E3,1.965E3,2.5E1,1.39E2,2.476E3,1.788E3,6E0,1.3E1,1.13E2,3.7E1,1.55E2,1E1,3.9E1,4.2E1,1.26E2,1.45E2,2.457E3,2.776E3,2.2E1,4E0,1.13E2,1.589E3,8.86E2,7.13E2,3.2E1,1.03E2,1.37E2,1.4296E4,8.36E2,2.413E3,5.836E3,1.64E2,4.39E3,1.16E2,7.4E1,3.04E2,1.69E2,3.06E2,2.2E1,1.02E2,1.02E2,6.5E1,1.09E2,3.9E1,5.1E1,1.1E1,4E0,1E0,1.4E1,3E0,4.3E1,5.14E2,4.42E2,8E0,4.9E1,6E0,1E0,6.2E1,2.1E1,1.2E1,1.092E3,8.73E2,2.2E1,3E0,2.466E3,1E1,1.76E3,2.8E1,1.2E1,1E0,1.52E2,3E0,3.4E1,8E0,1.3E1,1.13E2,1.35E2,1E1,2.297E3,1.6E2,4.67E2,2.309E3,1.527E3,6.2E1,8.59E2,2.7E1,3.93E2,3.2E2,3.4E1,1.03E2,1.23E4,1.996E3,7.98E2,3.8E1,2.266E3,1.47E2,2.104E3,3.732E3,1.07E2,5.7E1,4.289E3,1.01E2,7.8E1,3.8E1,6.4E1,1E1,2.45E2,5.9E1,5.7E1,2.49E2,6.8E1,3.4E1,4.1E1,6.8E1,3E0,3.6E1,4E1,1.1E1,5.13E2,1E0,4.27E2,1.5E1,1.9E1,4.3E1,1.9E1,2E0,2.415E3,5.1E1,1.742E3,1.8E1,1.2E1,1.6E1,7E0,6E0,1.03E2,1E1,9.8E1,3.7E1,8.21E2,1.476E3,9.9E1,3.68E2,2.214E3,9.5E1,6.1E1,1.466E3,5.7E1,5E0,1.2E1,8.47E2,2E1,1.4E1,9.2E1,1.1E1,8.75E3,3.55E3,1.125E3,8.71E2,1.2E1,7.86E2,6.1E1,2.205E3,3.5E1,1.12E2,6.86E2,1.418E3,2.583E3,1.149E3,2.532E3,1.757E3,6E0,7.2E1,4E0,6E1,2.03E2,4.2E1,1.4E1,4.5E1,7.3E1,1.76E2,4E0,6.4E1,5.11E2,2E0,3.47E2,8E1,8E0,7E0,7.74E2,1.641E3,7.94E2,9.48E2,9E0,9E0,2E0,1.01E2,1E1,2.7E1,1.205E3,1.009E3,7.68E2,6.98E2,1.9E1,7.3E1,2.971E3,5.779E3,3.478E3,7.2E1,4.71E2,6.54E2,8.58E2,1.3E1,1E1,2E0,2.3E1,7.63E2,5.4E1,7E0,7.06E2,1.499E3,2.524E3,5.9E1,1.132E3,1.7E1,2.13E3,4.02E2,4.62E2,1.295E3,1.2E1,4.8E1,9.5E1,1.08E2,9.4E1,8.2E1,1.71E2,1.76E2,4.6E1,3.4E1,3E0,1.006E3,5.49E2,2.19E2,7.2E1,1E0,2.767E3,2.04E2,2.014E3,3.765E3,3.453E3,2.5E1,5.2E1,2E1,4.56E2,1.5E1,5E1,8.08E2,7.46E2,1.7E1,2E0,5.2E1,6.79E2,2.7E1,8.56E2,6.43E2,5.6E1,2.468E3,6.05E2,5.27E2,1.395E3,7.35E2,1.044E3,2.51E2],"tree_param":{"num_deleted":"0","num_feature":"157","num_nodes":"351","size_leaf_vector":"1"}},{"base_weights":[-3.272128E1,-4.3761837E1,-2.465568E1,-5.2592403E1,-3.972185E1,-2.8874468E1,-1.7768763E1,-5.7561268E1,-4.9497143E1,-4.316326E1,-3.7263657E1,-3.184191E1,-2.6433508E1,-1.9923681E1,-1.0585808E1,-1.06695595E1,-5.5607616E1,-5.1231632E1,-8.396041E0,-4.4805595E1,-4.1818333E1,-3.8832428E1,-3.584499E1,-3.2866547E1,-3.0359184E1,-2.7865158E1,-2.4880907E1,-2.1454313E1,-1.7578712E1,-1.2516804E1,-4.0374846E0,-9.97223E0,-9.537722E0,-9.191795E0,-8.843716E0,-7.963916E0,-7.7032857E0,-7.440592E0,-7.1772723E0,-6.9127727E0,-6.650865E0,-6.387529E0,-6.124187E0,-3.3356087E1,-5.5973277E0,-5.4217734E0,-5.246154E0,-2.837277E1,-4.7192683E0,-2.5370974E1,-4.1921496E0,-2.2376955E1,-2.0375774E1,-1.842781E1,-1.638971E1,-1.3990517E1,-1.0569513E1,-6.538821E0,-3.8550964E-1,-5.9486303E0,-5.7730365E0,-5.070567E0,-4.8948536E0,-4.5435147E0,-4.3678207E0,-4.016365E0,-3.8406377E0,-3.6648364E0,-3.4891207E0,-3.3134177E0,-3.137282E0,-2.9613855E0,-2.785531E0,-2.608887E0,-1.3383223E1,-1.13693905E1,-9.457359E0,-7.4698606E0,-4.905503E0,-1.8521453E0,1.1547102E0,-2.4323626E0,-2.256461E0,-2.0800924E0,-1.9044548E0,-1.7287297E0,-1.5509368E0,-1.3756697E0,-1.1966482E0,-9.448396E-1,-6.663E-1,-2.3471146E0,-1.4661306E-1,1.6091253E0,1.837612E-2,-4.9329627E-1,-3.1973952E-1,3.6543393E-1,1.9215369E-1],"categories":[],"categories_nodes":[],"categories_segments":[],"categories_sizes":[],"default_left":[0,0,0,0,0,0,0,0,0,0,0,0,0,0,0,0,0,0,0,0,0,0,0,0,0,0,0,0,0,0,0,0,0,0,0,0,0,0,0,0,0,0,0,0,0,0,0,0,0,0,0,0,0,0,0,0,0,0,0,0,0,0,0,0,0,0,0,0,0,0,0,0,0,0,0,0,0,0,0,0,0,0,0,0,0,0,0,0,0,0,0,0,0,0,0,0,0,0,0],"id":1,"left_children":[1,3,5,7,9,11,13,15,17,19,21,23,25,27,29,-1,31,33,-1,35,37,39,41,43,45,47,49,51,53,55,57,-1,-1,-1,-1,-1,-1,-1,-1,-1,-1,-1,-1,59,-1,-1,-1,61,-1,63,-1,65,67,69,71,73,75,77,79,-1,-1,-1,-1,-1,-1,-1,-1,-1,-1,-1,-1,-1,-1,-1,81,83,85,87,89,91,93,-1,-1,-1,-1,-1,-1,-1,-1,-1,-1,95,-1,97,-1,-1,-1,-1,-1],"loss_changes":[4.27776E6,7.2236E5,8.0637E5,9.6276E4,1.16814E5,1.24207E5,1.631385E5,1.31775E4,1.0271E4,1.1729E4,1.7272E4,1.1216E4,2.059E4,2.888725E4,3.0755469E4,0E0,5.69E2,3.995E2,0E0,1.685E2,6.46E2,1.068E3,1.4155E3,1.646E3,2.5125E2,2.055E3,1.90825E3,4.603E3,3.04725E3,5.2965938E3,5.0673076E3,0E0,0E0,0E0,0E0,0E0,0E0,0E0,0E0,0E0,0E0,0E0,0E0,1.1825E2,0E0,0E0,0E0,3.3575E2,0E0,3.77875E2,0E0,3.54125E2,3.10625E2,2.484375E2,1.63625E2,4.2620312E2,6.474922E2,4.7084277E2,5.1346716E2,0E0,0E0,0E0,0E0,0E0,0E0,0E0,0E0,0E0,0E0,0E0,0E0,0E0,0E0,0E0,3.940625E1,2.8851562E1,2.016211E1,8.3203125E0,4.5017822E1,5.4887665E1,5.1162094E1,0E0,0E0,0E0,0E0,0E0,0E0,0E0,0E0,0E0,0E0,1.2075531E1,0E0,1.4594986E1,0E0,0E0,0E0,0E0,0E0],"parents":[2147483647,0,0,1,1,2,2,3,3,4,4,5,5,6,6,7,7,8,8,9,9,10,10,11,11,12,12,13,13,14,14,16,16,17,17,19,19,20,20,21,21,22,22,23,23,24,24,25,25,26,26,27,27,28,28,29,29,30,30,43,43,47,47,49,49,51,51,52,52,53,53,54,54,55,55,56,56,57,57,58,58,74,74,75,75,76,76,77,77,78,78,79,79,80,80,91,91,93,93],"right_children":[2,4,6,8,10,12,14,16,18,20,22,24,26,28,30,-1,32,34,-1,36,38,40,42,44,46,48,50,52,54,56,58,-1,-1,-1,-1,-1,-1,-1,-1,-1,-1,-1,-1,60,-1,-1,-1,62,-1,64,-1,66,68,70,72,74,76,78,80,-1,-1,-1,-1,-1,-1,-1,-1,-1,-1,-1,-1,-1,-1,-1,82,84,86,88,90,92,94,-1,-1,-1,-1,-1,-1,-1,-1,-1,-1,96,-1,98,-1,-1,-1,-1,-1],"split_conditions":[-9.903211E-2,-1.1286485E0,8.447829E-1,-1.7292581E0,-6.138403E-1,3.299747E-1,1.5311939E0,-2.1582649E0,-1.3860526E0,-8.712444E-1,-3.564362E-1,1.5837198E-1,5.873788E-1,1.1879884E0,2.1318033E0,-1.06695595E1,-1.9008608E0,-1.5576553E0,-8.396041E0,-9.5704573E-1,-6.9964164E-1,-4.422376E-1,-1.8483348E-1,7.257062E-2,2.4417335E-1,5.0157744E-1,7.589815E-1,1.0163857E0,1.3595911E0,1.788598E0,2.5608103E0,-9.97223E0,-9.537722E0,-9.191795E0,-8.843716E0,-7.963916E0,-7.7032857E0,-7.440592E0,-7.1772723E0,-6.9127727E0,-6.650865E0,-6.387529E0,-6.124187E0,-1.3230744E-2,-5.5973277E0,-5.4217734E0,-5.246154E0,4.1577607E-1,-4.7192683E0,6.7318016E-1,-4.1921496E0,9.3058425E-1,1.102187E0,1.2737898E0,1.4453925E0,1.6169952E0,1.9602007E0,2.3034062E0,2.8182144E0,-5.9486303E0,-5.7730365E0,-5.070567E0,-4.8948536E0,-4.5435147E0,-4.3678207E0,-4.016365E0,-3.8406377E0,-3.6648364E0,-3.4891207E0,-3.3134177E0,-3.137282E0,-2.9613855E0,-2.785531E0,-2.608887E0,1.7027966E0,1.8743993E0,2.046002E0,2.2176049E0,2.475009E0,2.732413E0,-1.1724342E0,-2.4323626E0,-2.256461E0,-2.0800924E0,-1.9044548E0,-1.7287297E0,-1.5509368E0,-1.3756697E0,-1.1966482E0,-9.448396E-1,-6.663E-1,2.6466117E0,-1.4661306E-1,-1.2789513E0,1.837612E-2,-4.9329627E-1,-3.1973952E-1,3.6543393E-1,1.9215369E-1],"split_indices":[17,17,17,17,17,17,17,17,17,17,17,17,17,17,17,0,17,17,0,17,17,17,17,17,17,17,17,17,17,17,17,0,0,0,0,0,0,0,0,0,0,0,0,17,0,0,0,17,0,17,0,17,17,17,17,17,17,17,17,0,0,0,0,0,0,0,0,0,0,0,0,0,0,0,17,17,17,17,17,17,6,0,0,0,0,0,0,0,0,0,0,17,0,6,0,0,0,0,0],"split_type":[0,0,0,0,0,0,0,0,0,0,0,0,0,0,0,0,0,0,0,0,0,0,0,0,0,0,0,0,0,0,0,0,0,0,0,0,0,0,0,0,0,0,0,0,0,0,0,0,0,0,0,0,0,0,0,0,0,0,0,0,0,0,0,0,0,0,0,0,0,0,0,0,0,0,0,0,0,0,0,0,0,0,0,0,0,0,0,0,0,0,0,0,0,0,0,0,0,0,0],"sum_hessian":[4.8045E4,2.0281E4,2.7764E4,6.364E3,1.3917E4,1.7216E4,1.0548E4,2.439E3,3.925E3,5.795E3,8.122E3,7.767E3,9.449E3,8.113E3,2.435E3,9.25E2,1.514E3,1.942E3,1.983E3,2.601E3,3.194E3,3.85E3,4.272E3,4.586E3,3.181E3,4.911E3,4.538E3,4.906E3,3.207E3,1.88E3,5.55E2,7.99E2,7.15E2,8.67E2,1.075E3,1.673E3,9.28E2,2.052E3,1.142E3,2.517E3,1.333E3,2.809E3,1.463E3,3.077E3,1.509E3,1.579E3,1.602E3,3.254E3,1.657E3,3.058E3,1.48E3,2.638E3,2.268E3,1.866E3,1.341E3,1.068E3,8.12E2,3.29E2,2.26E2,1.52E3,1.557E3,1.658E3,1.596E3,1.552E3,1.506E3,1.355E3,1.283E3,1.163E3,1.105E3,1.055E3,8.11E2,7.09E2,6.32E2,4.37E2,6.31E2,4.69E2,3.43E2,2.08E2,1.21E2,1.16E2,1.1E2,3.33E2,2.98E2,2.42E2,2.27E2,2.08E2,1.35E2,1.3E2,7.8E1,8.3E1,3.8E1,7.7E1,3.9E1,7.6E1,3.4E1,3.9E1,3.8E1,3.8E1,3.8E1],"tree_param":{"num_deleted":"0","num_feature":"157","num_nodes":"99","size_leaf_vector":"1"}},{"base_weights":[2.6976686E1,3.8766277E1,2.3987808E1,5.1115032E1,3.6124836E1,1.5271341E1,2.6685015E1,3.786063E1,5.769748E1,3.9981388E1,3.3168915E1,1.7653929E1,1.1403646E1,2.6074106E1,4.3767406E1,4.4187973E1,2.1627542E1,5.9094936E1,4.0082817E1,2.7540445E1,4.0610325E1,3.230029E1,4.5507706E1,3.1117731E1,1.6796267E1,1.0875788E1,2.3975578E1,2.833658E1,2.2267384E1,4.1356125E1,5.6087135E1,4.286311E1,9.720969E0,3.3814907E1,1.8565262E1,5.771586E1,7.160516E1,8.456733E0,6.065993E0,2.4162987E1,4.5099663E1,3.9845776E1,4.9120487E1,3.307585E1,3.0999926E1,4.106879E1,4.9439674E1,2.7793919E1,5.4841038E1,1.6710743E1,3.5425766E1,1.4856278E1,1.058564E1,2.6306704E1,1.754001E1,2.9791899E1,2.1795053E1,2.4457417E1,1.9952522E1,3.8474503E1,4.4722813E1,6.333113E1,9.153857E0,4.64398E1,3.7711216E1,2.4128363E1,7.163237E0,1.7746635E1,6.1587934E0,6.0304123E1,5.3932835E1,1.2178606E1,1.9828964E1,2.6833923E1,1.5029157E1,6.504629E0,9.221937E0,4.1431515E1,3.848201E1,8.167304E0,5.468705E1,3.2941025E1,3.9765568E1,3.092991E1,4.0795845E1,7.401937E0,5.912001E0,8.81847E0,6.4268365E0,2.2460043E1,3.538759E1,1.0016213E1,6.2387466E0,1.6556011E1,1.9381798E1,4.8141375E0,4.5595234E1,2.30995E1,1.4449137E1,1.1289392E1,9.522616E0,6.865189E0,2.541195E1,3.2807186E0,2.27779E0,4.1783436E1,2.961976E1,3.049316E1,1.8796124E1,3.5173847E1,2.4222843E1,1.9696365E1,3.0135908E1,4.4053284E1,3.6774254E1,8.2021055E0,4.219696E1,1.1212746E1,4.13373E0,5.174103E1,4.2945633E1,3.6175053E1,4.2806732E1,4.8832054E0,2.6950395E0,3.8098989E0,2.9135327E0,9.310221E0,6.093142E1,5.4544865E1,5.468116E0,3.270876E1,2.3326502E1,3.00307E0,2.162205E0,7.488507E0,7.124917E0,6.735379E0,7.9722075E0,1.0999936E1,8.9810505E0,3.288586E1,8.688761E0,5.8285036E0,7.794618E0,5.5093765E0,2.9676502E1,7.525557E0,2.5882661E0,1.9944042E1,2.7508717E1,5.7151265E0,8.054701E0,1.6065079E1,1.7380165E1,3.2751083E0,3.6624954E0,5.7209153E0,9.833231E0,2.0910034E0,4.4132385E0,2.8303237E0,2.197993E0,1.1133142E1,1.54537115E1,9.41195E0,2.3822773E0,2.3968222E0,4.516637E0,3.882552E1,5.103863E1,2.9488054E1,3.743413E1,3.1249733E1,2.2517931E1,1.8100222E1,2.9737255E1,2.9962885E1,7.3645325E0,2.5430462E1,2.3190742E1,2.2850197E1,1.9196396E1,2.6141127E1,6.541448E0,4.513735E1,5.084862E0,3.7980415E1,3.1690931E1,8.042805E0,4.0052723E1,6.284713E0,5.318856E1,2.8836896E0,4.3278637E1,6.644753E0,3.2237152E1,7.635018E0,2.470732E0,1.1299503E1,5.938696E1,5.282542E1,1.0866268E1,5.855574E0,2.87144E0,3.7251983E0,4.5178723E0,3.28587E1,9.377087E0,5.2709446E0,2.2719627E1,2.8312355E1,3.1954734E0,5.629747E0,2.4102642E1,1.5139607E1,1.6562456E1,1.7962435E1,1.6939476E1,1.3968315E1,1.1061957E1,2.5816646E0,3.6887455E0,9.7894335E0,8.734778E0,4.294815E1,5.879552E0,5.2054802E1,5.322823E0,2.9774426E1,2.6623669E1,3.3737026E1,4.0548744E1,8.589861E0,3.092763E1,3.3948112E0,4.773796E0,3.0453775E1,1.774922E1,4.226363E0,5.552368E0,4.488548E0,5.6998057E0,4.6366363E0,2.4789103E1,4.977329E0,2.3048553E1,3.9659986E0,5.735158E0,1.9098997E1,4.000605E0,4.43215E0,6.7745223E0,8.007662E0,2.6519772E1,3.8935696E1,3.2630653E1,4.227599E0,5.911297E0,2.707071E0,7.0618024E0,1.0007516E1,4.47372E1,4.392229E1,5.4881306E0,5.723613E0,2.1042454E0,5.9453625E1,3.9702525E0,5.093493E1,5.9269955E1,5.884003E0,5.6700764E0,4.733126E0,3.3057406E0,5.296386E0,2.6761322E0,3.4188004E0,4.636174E0,1.5571057E1,2.5524883E0,1.6133076E1,3.1304314E0,3.0203154E0,3.2410882E0,4.6897726E0,1.6906788E1,2.6711483E0,1.8893263E0,1.1451873E1,1.8758801E0,9.742172E0,2.8835177E0,1.521052E0,2.4278305E0,5.5206005E1,4.0762756E1,5.4431834E0,9.340408E0,3.038311E1,2.8796946E1,2.5337725E1,3.101929E1,6.277361E0,5.371917E0,6.318898E0,4.5377895E1,3.0699501E1,6.6926084E0,3.1696262E1,3.0357594E0,1.8300749E1,1.6747725E1,4.358814E0,2.314614E0,2.2774014E1,2.5798805E1,1.971594E1,1.8646667E1,5.3699923E0,1.7679403E0,3.9260178E1,5.0705323E0,6.2934113E0,4.9815164E0,4.621241E0,8.175994E0,7.7867904E0,4.9624505E0,9.812111E0,1.0727502E1,8.486754E0,9.703765E0,1.0475008E1,4.0506597E0,2.7247243E0,3.9383543E0,2.9454453E0,2.705492E0,2.8773775E0,3.0376914E0,2.0500028E0,1.9248751E0,1.6971416E0,2.2142007E0,3.4030588E0,1.0111507E1,6.396246E0,8.118368E0,5.453013E0,5.1160364E0,5.005274E0,5.391892E0,4.993044E0,4.2263575E0,5.9060864E0,3.9737244E0,5.0417914E0,8.193983E0,5.399965E0,2.525882E0,5.622118E0,1.6518955E0,3.1923022E0,3.780524E0,2.987576E0,2.6552317E0,4.184338E0,3.8981829E0,3.9693909E0,6.010018E0,3.3631318E0,3.5401833E0,3.3232417E0,3.0729845E0,7.0935388E0,6.215533E0],"categories":[],"categories_nodes":[],"categories_segments":[],"categories_sizes":[],"default_left":[0,0,0,0,0,0,0,0,0,0,0,0,0,0,0,0,0,0,0,0,0,0,0,0,0,0,0,0,0,0,0,0,0,0,0,0,0,0,0,0,0,0,0,0,0,0,0,0,0,0,0,0,0,0,0,0,0,0,0,0,0,0,0,0,0,0,0,0,0,0,0,0,0,0,0,0,0,0,0,0,0,0,0,0,0,0,0,0,0,0,0,0,0,0,0,0,0,0,0,0,0,0,0,0,0,0,0,0,0,0,0,0,0,0,0,0,0,0,0,0,0,0,0,0,0,0,0,0,0,0,0,0,0,0,0,0,0,0,0,0,0,0,0,0,0,0,0,0,0,0,0,0,0,0,0,0,0,0,0,0,0,0,0,0,0,0,0,0,0,0,0,0,0,0,0,0,0,0,0,0,0,0,0,0,0,0,0,0,0,0,0,0,0,0,0,0,0,0,0,0,0,0,0,0,0,0,0,0,0,0,0,0,0,0,0,0,0,0,0,0,0,0,0,0,0,0,0,0,0,0,0,0,0,0,0,0,0,0,0,0,0,0,0,0,0,0,0,0,0,0,0,0,0,0,0,0,0,0,0,0,0,0,0,0,0,0,0,0,0,0,0,0,0,0,0,0,0,0,0,0,0,0,0,0,0,0,0,0,0,0,0,0,0,0,0,0,0,0,0,0,0,0,0,0,0,0,0,0,0,0,0,0,0,0,0,0,0,0,0,0,0,0,0,0,0,0,0,0,0,0,0,0,0,0,0,0,0,0,0,0,0,0,0,0,0,0,0,0,0,0,0,0,0,0,0,0,0,0,0,0,0,0,0,0,0,0,0,0,0,0,0,0,0,0,0,0,0],"id":2,"left_children":[1,3,5,7,9,11,13,15,17,19,21,23,25,27,29,31,33,35,37,39,41,43,45,47,49,51,53,55,57,59,61,63,-1,65,67,69,71,-1,-1,73,75,77,79,81,83,85,87,89,91,93,95,97,99,101,103,105,107,109,111,113,115,117,-1,119,121,123,-1,125,-1,127,129,-1,-1,131,133,-1,-1,135,137,-1,139,141,143,145,147,-1,-1,-1,-1,149,151,-1,-1,153,155,-1,157,159,161,163,165,-1,167,-1,-1,169,171,173,175,177,179,181,183,185,187,-1,189,-1,-1,191,193,195,197,-1,-1,-1,-1,-1,199,201,-1,203,205,-1,-1,-1,-1,-1,-1,-1,-1,207,-1,-1,-1,-1,209,-1,-1,211,213,-1,-1,215,217,-1,-1,-1,-1,-1,-1,-1,-1,219,221,223,-1,-1,-1,225,227,229,231,233,235,237,239,241,-1,243,245,247,249,251,-1,253,-1,255,257,-1,259,-1,261,-1,263,-1,265,-1,-1,-1,267,269,-1,-1,-1,-1,-1,271,-1,-1,273,275,-1,-1,277,279,281,283,285,287,289,-1,-1,291,293,295,-1,297,-1,299,301,303,305,-1,307,-1,-1,309,311,-1,-1,-1,-1,-1,313,-1,315,-1,-1,317,-1,-1,-1,-1,319,321,323,-1,-1,-1,-1,-1,325,327,-1,-1,-1,329,-1,331,333,-1,-1,-1,-1,-1,-1,-1,-1,335,-1,337,-1,-1,-1,-1,339,-1,-1,341,-1,343,-1,-1,-1,345,347,-1,-1,349,351,353,355,-1,-1,-1,357,359,-1,361,-1,363,365,-1,-1,367,369,371,373,-1,-1,375,-1,-1,-1,-1,-1,-1,-1,-1,-1,-1,-1,-1,-1,-1,-1,-1,-1,-1,-1,-1,-1,-1,-1,-1,-1,-1,-1,-1,-1,-1,-1,-1,-1,-1,-1,-1,-1,-1,-1,-1,-1,-1,-1,-1,-1,-1,-1,-1,-1,-1,-1,-1,-1,-1,-1],"loss_changes":[1.69028E6,3.15457E5,8.99726E5,1.478185E5,9.0378E4,8.3242E4,3.04408E5,5.7829562E4,2.6729E4,2.647E4,4.7697E4,6.4317125E4,2.2729375E4,2.42716E5,2.864125E4,4.6814375E3,5.6117266E3,1.59005E4,2.8707031E3,9.354984E3,2.03435E4,3.6685E3,4.016875E3,2.5495844E4,8.026E3,3.7199375E3,1.7946719E3,1.68128E5,5.30575E4,7.215375E3,2.8706875E3,5.76775E3,0E0,1.5441836E3,1.3713867E3,7.50725E3,5.3768125E3,0E0,0E0,3.2262344E3,4.7192188E2,5.6335E3,2.5171875E3,1.62425E3,3.5725E2,2.995625E2,4.375E2,1.1456531E4,5.3934375E2,1.963875E3,1.1929023E3,5.399883E2,2.2359375E3,5.640547E2,4.326367E1,2.9165E4,8.3738E4,1.30835E4,1.2995375E4,3.426875E3,7.86875E2,1.9645312E2,0E0,2.7096875E3,3.0945312E2,2.0368945E2,0E0,3.4644922E2,0E0,7.6075E2,4.503E3,0E0,0E0,1.802375E3,5.0858887E1,0E0,0E0,4.675E2,6.78E2,0E0,5.62E2,1.42625E3,6.509453E2,2.96125E2,1.19833984E2,0E0,0E0,0E0,0E0,1.8838594E3,2.7436406E3,0E0,0E0,1.82825E3,6.6703125E1,0E0,2.4219727E2,2.4168457E1,5.583086E2,1.0926875E3,4.634922E2,0E0,1.0961719E2,0E0,0E0,4.4397812E3,1.4048E4,4.5600625E3,1.7934438E4,3.2922344E3,6.23925E3,7.607125E3,2.9561953E3,9.534219E2,1.4790625E3,0E0,2.89E2,0E0,0E0,8.189219E2,7.412656E2,7.671875E1,2.2978906E2,0E0,0E0,0E0,0E0,0E0,5.40375E2,2.951E3,0E0,6.650391E1,2.6878906E1,0E0,0E0,0E0,0E0,0E0,0E0,0E0,0E0,4.3175E2,0E0,0E0,0E0,0E0,5.1425E2,0E0,0E0,1.4289258E3,4.1305078E2,0E0,0E0,1.2725625E3,2.808125E2,0E0,0E0,0E0,0E0,0E0,0E0,0E0,0E0,2.57375E2,8.098633E1,2.4603906E2,0E0,0E0,0E0,2.6299688E3,9.158594E1,1.1047E4,1.908375E3,3.4016875E3,7.737344E2,9.4550625E3,1.0566328E3,2.3658984E2,0E0,1.1025E3,1.69675E3,1.4144062E3,1.234E3,3.5461328E2,0E0,7.9890625E1,0E0,7.16125E2,5.848125E2,0E0,9.671875E0,0E0,9.295625E2,0E0,2.168125E2,0E0,2.4378906E1,0E0,0E0,0E0,9.5875E1,2.1061875E3,0E0,0E0,0E0,0E0,0E0,3.25E2,0E0,0E0,2.8855469E1,1.841914E2,0E0,0E0,5.3285156E1,1.4301562E2,9.04875E2,9.359375E1,5.975E1,5.5259277E1,1.7879688E2,0E0,0E0,1.3238281E2,8.974219E1,1.0376562E3,0E0,8.771875E1,0E0,7.077E3,6.7768125E3,5.7070312E1,1.8190156E3,0E0,5.2825E2,0E0,0E0,6.734414E2,1.0191875E3,0E0,0E0,0E0,0E0,0E0,1.069375E2,0E0,1.748375E3,0E0,0E0,9.4425E2,0E0,0E0,0E0,0E0,3.60459E1,1.18125E2,3.86875E1,0E0,0E0,0E0,0E0,0E0,1.3071094E2,3.009375E1,0E0,0E0,0E0,1.56E2,0E0,1.2671875E3,4.565625E1,0E0,0E0,0E0,0E0,0E0,0E0,0E0,0E0,5.8703125E1,0E0,5.34875E2,0E0,0E0,0E0,0E0,3.434375E1,0E0,0E0,4.5078125E0,0E0,9.741406E1,0E0,0E0,0E0,3.0817188E2,8.25375E2,0E0,0E0,5.9475E3,2.36075E3,3.52325E3,5.81525E3,0E0,0E0,0E0,4.5010938E2,1.2075E2,0E0,1.7682031E2,0E0,3.5690625E2,1.6426562E2,0E0,0E0,1.23175E3,6.2410156E3,2.006875E2,5.453125E2,0E0,0E0,1.65875E2,0E0,0E0,0E0,0E0,0E0,0E0,0E0,0E0,0E0,0E0,0E0,0E0,0E0,0E0,0E0,0E0,0E0,0E0,0E0,0E0,0E0,0E0,0E0,0E0,0E0,0E0,0E0,0E0,0E0,0E0,0E0,0E0,0E0,0E0,0E0,0E0,0E0,0E0,0E0,0E0,0E0,0E0,0E0,0E0,0E0,0E0,0E0,0E0,0E0,0E0,0E0,0E0,0E0,0E0,0E0],"parents":[2147483647,0,0,1,1,2,2,3,3,4,4,5,5,6,6,7,7,8,8,9,9,10,10,11,11,12,12,13,13,14,14,15,15,16,16,17,17,18,18,19,19,20,20,21,21,22,22,23,23,24,24,25,25,26,26,27,27,28,28,29,29,30,30,31,31,33,33,34,34,35,35,36,36,39,39,40,40,41,41,42,42,43,43,44,44,45,45,46,46,47,47,48,48,49,49,50,50,51,51,52,52,53,53,54,54,55,55,56,56,57,57,58,58,59,59,60,60,61,61,63,63,64,64,65,65,67,67,69,69,70,70,73,73,74,74,77,77,78,78,80,80,81,81,82,82,83,83,84,84,89,89,90,90,93,93,94,94,96,96,97,97,98,98,99,99,100,100,102,102,105,105,106,106,107,107,108,108,109,109,110,110,111,111,112,112,113,113,114,114,116,116,119,119,120,120,121,121,122,122,128,128,129,129,131,131,132,132,141,141,146,146,149,149,150,150,153,153,154,154,163,163,164,164,165,165,169,169,170,170,171,171,172,172,173,173,174,174,175,175,176,176,177,177,179,179,180,180,181,181,182,182,183,183,185,185,187,187,188,188,190,190,192,192,194,194,196,196,200,200,201,201,207,207,210,210,211,211,214,214,215,215,216,216,217,217,218,218,219,219,220,220,223,223,224,224,225,225,227,227,229,229,230,230,231,231,232,232,234,234,237,237,238,238,244,244,246,246,249,249,254,254,255,255,256,256,262,262,263,263,267,267,269,269,270,270,279,279,281,281,286,286,289,289,291,291,295,295,296,296,299,299,300,300,301,301,302,302,306,306,307,307,309,309,311,311,312,312,315,315,316,316,317,317,318,318,321,321],"right_children":[2,4,6,8,10,12,14,16,18,20,22,24,26,28,30,32,34,36,38,40,42,44,46,48,50,52,54,56,58,60,62,64,-1,66,68,70,72,-1,-1,74,76,78,80,82,84,86,88,90,92,94,96,98,100,102,104,106,108,110,112,114,116,118,-1,120,122,124,-1,126,-1,128,130,-1,-1,132,134,-1,-1,136,138,-1,140,142,144,146,148,-1,-1,-1,-1,150,152,-1,-1,154,156,-1,158,160,162,164,166,-1,168,-1,-1,170,172,174,176,178,180,182,184,186,188,-1,190,-1,-1,192,194,196,198,-1,-1,-1,-1,-1,200,202,-1,204,206,-1,-1,-1,-1,-1,-1,-1,-1,208,-1,-1,-1,-1,210,-1,-1,212,214,-1,-1,216,218,-1,-1,-1,-1,-1,-1,-1,-1,220,222,224,-1,-1,-1,226,228,230,232,234,236,238,240,242,-1,244,246,248,250,252,-1,254,-1,256,258,-1,260,-1,262,-1,264,-1,266,-1,-1,-1,268,270,-1,-1,-1,-1,-1,272,-1,-1,274,276,-1,-1,278,280,282,284,286,288,290,-1,-1,292,294,296,-1,298,-1,300,302,304,306,-1,308,-1,-1,310,312,-1,-1,-1,-1,-1,314,-1,316,-1,-1,318,-1,-1,-1,-1,320,322,324,-1,-1,-1,-1,-1,326,328,-1,-1,-1,330,-1,332,334,-1,-1,-1,-1,-1,-1,-1,-1,336,-1,338,-1,-1,-1,-1,340,-1,-1,342,-1,344,-1,-1,-1,346,348,-1,-1,350,352,354,356,-1,-1,-1,358,360,-1,362,-1,364,366,-1,-1,368,370,372,374,-1,-1,376,-1,-1,-1,-1,-1,-1,-1,-1,-1,-1,-1,-1,-1,-1,-1,-1,-1,-1,-1,-1,-1,-1,-1,-1,-1,-1,-1,-1,-1,-1,-1,-1,-1,-1,-1,-1,-1,-1,-1,-1,-1,-1,-1,-1,-1,-1,-1,-1,-1,-1,-1,-1,-1,-1,-1],"split_conditions":[-6.7500955E-1,-8.579161E-1,-5.3408164E-1,-5.3408164E-1,2.9693207E-1,4.4308403E-1,7.362847E-1,5.2520324E-2,1E0,-5.3408164E-1,3.7789875E-1,3.365646E-1,-1.0559262E-1,3.9902726E-1,3.4397008E0,3.4397008E0,-5.832864E-1,4.921547E0,-9.594001E-1,-1.0559262E-1,3.7789875E-1,-9.322889E-1,2.1200204E0,1E0,9.467524E-1,-4.6918863E-1,7.8200865E-1,1.079645E0,1.0401645E0,2.1200204E0,-6.404936E-1,-3.2836308E0,9.720969E0,-1.5349602E0,1.9372367E0,-1.0417122E0,1E0,8.456733E0,6.065993E0,1E0,4.2321393E-1,-1.4068171E0,1.719819E0,-1.1239572E-1,1.033579E0,-2.1913E-3,5.084505E-1,9.467524E-1,-1.3370979E0,1.8005674E-1,8.230109E-1,4.902133E-1,-1.4902283E-1,5.2520324E-2,-1.0659171E0,-1.8135006E0,-2.0280059E-1,-1.2789513E0,-1.121651E-1,-1.9605137E0,-4.778432E-2,3.1992235E0,9.153857E0,-7.4340296E-1,-3.738662E-1,-1.5708708E0,7.163237E0,6.3611096E-1,6.1587934E0,-1.1945282E0,1E0,1.2178606E1,1.9828964E1,3.7167147E-1,2.3071499E-1,6.504629E0,9.221937E0,-1.589769E0,-1.14209875E-1,8.167304E0,-1.8413278E0,1E0,5.1379178E-2,-7.68154E-1,7.6685846E-1,7.401937E0,5.912001E0,8.81847E0,6.4268365E0,-1.0559262E-1,2.6769433E0,1.0016213E1,6.2387466E0,-7.823681E-2,3.7789875E-1,4.8141375E0,2.993126E-1,2.4256091E-1,-1.4040219E0,3.3202904E-1,3.0098593E-1,6.865189E0,-1.5708708E0,3.2807186E0,2.27779E0,1E0,-1.121651E-1,4.2850393E-1,5.415891E-1,-1.5124276E0,5.679805E-2,6.452296E-1,-1.5708708E0,3.0784124E-1,1.0550092E0,8.2021055E0,-1.0143965E0,1.1212746E1,4.13373E0,-2.4995384E0,-2.8446789E0,-6.941314E-1,3.577558E-1,4.8832054E0,2.6950395E0,3.8098989E0,2.9135327E0,9.310221E0,-2.4359214E0,1.2960211E0,5.468116E0,-5.4774964E-1,1.719819E0,3.00307E0,2.162205E0,7.488507E0,7.124917E0,6.735379E0,7.9722075E0,1.0999936E1,8.9810505E0,1E0,8.688761E0,5.8285036E0,7.794618E0,5.5093765E0,4.6495423E-1,7.525557E0,2.5882661E0,-2.575122E-1,9.8930544E-1,5.7151265E0,8.054701E0,-5.063729E-1,-1.620469E-2,3.2751083E0,3.6624954E0,5.7209153E0,9.833231E0,2.0910034E0,4.4132385E0,2.8303237E0,2.197993E0,-1.6297344E0,9.467524E-1,-3.46779E-2,2.3822773E0,2.3968222E0,4.516637E0,-2.879345E0,5.599157E-1,3.2607844E-1,-1.8903462E-2,-1.0049291E0,1.4271528E0,-1.6297344E0,-1.831479E-1,-5.063729E-1,7.3645325E0,-5.7546884E-2,-1.5471025E0,1.4855627E0,2.4098466E-1,1E0,6.541448E0,1.0550092E0,5.084862E0,6.3611096E-1,-1.3089929E0,8.042805E0,-2.0428509E-2,6.284713E0,-5.805528E-1,2.8836896E0,1E0,6.644753E0,1.5266204E0,7.635018E0,2.470732E0,1.1299503E1,1E0,1E0,1.0866268E1,5.855574E0,2.87144E0,3.7251983E0,4.5178723E0,-1.0599494E0,9.377087E0,5.2709446E0,2.5440684E-1,-8.912481E-2,3.1954734E0,5.629747E0,-1.3453819E-1,1E0,1E0,-3.2045558E-1,-1.2789513E0,8.0936444E-1,-2.6336777E-1,2.5816646E0,3.6887455E0,1E0,4.274345E0,-3.3197471E-1,5.879552E0,-1.5071123E0,5.322823E0,2.993126E-1,1.2304106E0,-6.9422233E-1,-1.620469E-2,8.589861E0,-1.12773664E-1,3.3948112E0,4.773796E0,-9.594001E-1,1.0556047E0,4.226363E0,5.552368E0,4.488548E0,5.6998057E0,4.6366363E0,1.409734E0,4.977329E0,1.2522807E0,3.9659986E0,5.735158E0,-1.620469E-2,4.000605E0,4.43215E0,6.7745223E0,8.007662E0,-4.005817E-1,1E0,-1.0659171E0,4.227599E0,5.911297E0,2.707071E0,7.0618024E0,1.0007516E1,1.0554491E0,1E0,5.4881306E0,5.723613E0,2.1042454E0,-3.6353836E0,3.9702525E0,2.6769433E0,1E0,5.884003E0,5.6700764E0,4.733126E0,3.3057406E0,5.296386E0,2.6761322E0,3.4188004E0,4.636174E0,-1.0559262E-1,2.5524883E0,6.4997196E-1,3.1304314E0,3.0203154E0,3.2410882E0,4.6897726E0,-1.3453819E-1,2.6711483E0,1.8893263E0,2.1274142E0,1.8758801E0,1.7787621E0,2.8835177E0,1.521052E0,2.4278305E0,-1.0604901E0,-1.1239572E-1,5.4431834E0,9.340408E0,5.622936E-1,1.3251814E0,-6.358449E-1,-7.5249624E-1,6.277361E0,5.371917E0,6.318898E0,-2.6465864E0,1.5204132E0,6.6926084E0,3.1992235E0,3.0357594E0,3.0098593E-1,4.2710333E0,4.358814E0,2.314614E0,1.7114298E-1,6.5093297E-1,-3.2045558E-1,1.4984534E0,5.3699923E0,1.7679403E0,9.8930544E-1,5.0705323E0,6.2934113E0,4.9815164E0,4.621241E0,8.175994E0,7.7867904E0,4.9624505E0,9.812111E0,1.0727502E1,8.486754E0,9.703765E0,1.0475008E1,4.0506597E0,2.7247243E0,3.9383543E0,2.9454453E0,2.705492E0,2.8773775E0,3.0376914E0,2.0500028E0,1.9248751E0,1.6971416E0,2.2142007E0,3.4030588E0,1.0111507E1,6.396246E0,8.118368E0,5.453013E0,5.1160364E0,5.005274E0,5.391892E0,4.993044E0,4.2263575E0,5.9060864E0,3.9737244E0,5.0417914E0,8.193983E0,5.399965E0,2.525882E0,5.622118E0,1.6518955E0,3.1923022E0,3.780524E0,2.987576E0,2.6552317E0,4.184338E0,3.8981829E0,3.9693909E0,6.010018E0,3.3631318E0,3.5401833E0,3.3232417E0,3.0729845E0,7.0935388E0,6.215533E0],"split_indices":[3,5,11,11,11,10,14,2,23,11,14,5,16,2,14,14,11,14,6,16,14,2,14,25,14,3,2,9,3,14,2,5,0,14,14,2,40,0,0,23,7,3,14,16,10,2,2,14,0,14,8,2,3,2,6,5,2,6,16,5,2,1,0,9,9,0,0,2,0,14,24,0,0,2,8,0,0,3,16,0,3,39,7,2,0,0,0,0,0,16,14,0,0,9,14,0,0,8,8,14,14,0,0,0,0,25,16,10,11,0,3,2,0,2,9,0,9,0,0,11,14,9,0,0,0,0,0,0,3,10,0,11,14,0,0,0,0,0,0,0,0,33,0,0,0,0,10,0,0,2,16,0,0,7,1,0,0,0,0,0,0,0,0,5,14,3,0,0,0,5,3,2,15,5,8,5,16,7,0,3,10,10,14,51,0,9,0,2,15,0,2,0,11,0,26,0,0,0,0,0,24,33,0,0,0,0,0,2,0,0,8,8,0,0,7,19,22,7,6,2,3,0,0,47,15,3,0,9,0,0,10,0,1,0,16,0,0,6,1,0,0,0,0,0,0,0,10,0,0,1,0,0,0,0,3,39,6,0,0,0,0,0,10,35,0,0,0,15,0,14,73,0,0,0,0,0,0,0,0,16,0,0,0,0,0,0,7,0,0,1,0,15,0,0,0,8,16,0,0,9,10,10,8,0,0,0,2,3,0,1,0,14,1,0,0,3,11,7,9,0,0,16,0,0,0,0,0,0,0,0,0,0,0,0,0,0,0,0,0,0,0,0,0,0,0,0,0,0,0,0,0,0,0,0,0,0,0,0,0,0,0,0,0,0,0,0,0,0,0,0,0,0,0,0,0,0,0],"split_type":[0,0,0,0,0,0,0,0,0,0,0,0,0,0,0,0,0,0,0,0,0,0,0,0,0,0,0,0,0,0,0,0,0,0,0,0,0,0,0,0,0,0,0,0,0,0,0,0,0,0,0,0,0,0,0,0,0,0,0,0,0,0,0,0,0,0,0,0,0,0,0,0,0,0,0,0,0,0,0,0,0,0,0,0,0,0,0,0,0,0,0,0,0,0,0,0,0,0,0,0,0,0,0,0,0,0,0,0,0,0,0,0,0,0,0,0,0,0,0,0,0,0,0,0,0,0,0,0,0,0,0,0,0,0,0,0,0,0,0,0,0,0,0,0,0,0,0,0,0,0,0,0,0,0,0,0,0,0,0,0,0,0,0,0,0,0,0,0,0,0,0,0,0,0,0,0,0,0,0,0,0,0,0,0,0,0,0,0,0,0,0,0,0,0,0,0,0,0,0,0,0,0,0,0,0,0,0,0,0,0,0,0,0,0,0,0,0,0,0,0,0,0,0,0,0,0,0,0,0,0,0,0,0,0,0,0,0,0,0,0,0,0,0,0,0,0,0,0,0,0,0,0,0,0,0,0,0,0,0,0,0,0,0,0,0,0,0,0,0,0,0,0,0,0,0,0,0,0,0,0,0,0,0,0,0,0,0,0,0,0,0,0,0,0,0,0,0,0,0,0,0,0,0,0,0,0,0,0,0,0,0,0,0,0,0,0,0,0,0,0,0,0,0,0,0,0,0,0,0,0,0,0,0,0,0,0,0,0,0,0,0,0,0,0,0,0,0,0,0,0,0,0,0,0,0,0,0,0,0,0,0,0,0,0,0,0,0,0,0,0,0,0,0,0,0,0,0],"sum_hessian":[4.7983E4,9.703E3,3.828E4,1.708E3,7.995E3,9.047E3,2.9233E4,5.68E2,1.14E3,3.466E3,4.529E3,5.597E3,3.45E3,2.8225E4,1.008E3,4.08E2,1.6E2,1.055E3,8.5E1,1.68E2,3.298E3,4.233E3,2.96E2,3.34E2,5.263E3,3.312E3,1.38E2,1.7701E4,1.0524E4,8.45E2,1.63E2,3.67E2,4.1E1,3.1E1,1.29E2,9.53E2,1.02E2,3.3E1,5.2E1,1.42E2,2.6E1,3.029E3,2.69E2,2.643E3,1.59E3,1.42E2,1.54E2,2.94E2,4E1,5.24E3,2.3E1,2.23E2,3.089E3,1E2,3.8E1,1.4478E4,3.223E3,5.405E3,5.119E3,4.59E2,3.86E2,5.5E1,1.08E2,2.14E2,1.53E2,1.4E1,1.7E1,1.24E2,5E0,5.61E2,3.92E2,9.8E1,4E0,1.09E2,3.3E1,1.4E1,1.2E1,1.393E3,1.636E3,1.86E2,8.3E1,2.594E3,4.9E1,1.581E3,9E0,1.22E2,2E1,1.44E2,1E1,1.74E2,1.2E2,3.5E1,5E0,4.957E3,2.83E2,1.4E1,9E0,9E0,2.14E2,1.855E3,1.234E3,5E0,9.5E1,2.9E1,9E0,2.03E2,1.4275E4,8.25E2,2.398E3,1.14E2,5.291E3,4.995E3,1.24E2,1.04E2,3.55E2,2.12E2,1.74E2,5.4E1,1E0,8.2E1,1.32E2,1.21E2,3.2E1,9E0,5E0,2.6E1,9.8E1,4.8E1,5.13E2,3.81E2,1.1E1,3.9E1,7E1,1.7E1,1.6E1,5.82E2,8.11E2,1.605E3,3.1E1,2.3E1,6E1,2.587E3,7E0,2.2E1,2.7E1,1.17E3,4.11E2,8E0,1E0,1.18E2,5.6E1,9.6E1,2.4E1,3.114E3,1.843E3,1.93E2,9E1,5E0,4E0,2E0,7E0,1.13E2,1.01E2,1.79E3,6.5E1,1.203E3,3.1E1,3E0,9.2E1,1.56E2,4.7E1,1.4041E4,2.34E2,7.52E2,7.3E1,2.256E3,1.42E2,6.6E1,4.8E1,2.432E3,2.859E3,6.8E2,4.315E3,8.1E1,4.3E1,9.6E1,8E0,2.84E2,7.1E1,6.1E1,1.13E2,8E0,7.4E1,2E0,1.3E2,8.2E1,3.9E1,3.1E1,1E0,1.54E2,3.59E2,3.12E2,6.9E1,3.7E1,2E0,4E1,3E1,2.585E3,2E0,3.91E2,2E1,1.9E1,9.9E1,2.2E1,3.4E1,1.095E3,2.019E3,7.84E2,1.059E3,4.1E1,1.749E3,5.9E1,6E0,7.67E2,4.36E2,8.6E1,7E1,4.4E1,3E0,1.276E4,1.281E3,1.1E2,1.24E2,1.2E1,7.4E2,4.5E1,2.8E1,6.1E1,2.195E3,3.7E1,1.05E2,2.6E1,4E1,9.66E2,1.466E3,7.4E1,2.785E3,6.63E2,1.7E1,4.204E3,1.11E2,7.7E1,4E0,9.3E1,3E0,2.38E2,4.6E1,1.6E1,5.5E1,1E0,1.12E2,4.9E1,2.5E1,1.22E2,8E0,3.8E1,1E0,3.58E2,1E0,2.45E2,6.7E1,1.234E3,1.351E3,8E0,1.2E1,1.6E1,3E0,1.3E1,2.1E1,6.34E2,4.61E2,1.51E3,5.09E2,3.1E2,4.74E2,2E0,1.057E3,2.8E1,1.3E1,8.61E2,8.88E2,7.63E2,4E0,4.31E2,5E0,1.1E1,7.5E1,3E0,4.1E1,7.853E3,4.907E3,9.94E2,2.87E2,6.4E1,4.6E1,6.6E1,5.8E1,7.2E2,2E1,5.5E1,6E0,1.409E3,7.86E2,1.463E3,3E0,2.537E3,2.48E2,1.768E3,2.436E3,2E0,1E0,2.29E2,9E0,2.4E1,2.2E1,3E0,2.2E1,1.18E2,4E0,1.16E2,2.42E2,1.56E2,8.9E1,6.6E1,1E0,6.3E2,4E0,8.06E2,7.04E2,4.53E2,6.04E2,5.91E2,2.7E2,7.44E2,1.9E1,1E0,1E1,4.4E1,3.1E1,5.175E3,2.678E3,4.223E3,6.84E2,2.89E2,7.05E2,2.18E2,6.9E1,5E0,5.3E1,7.18E2,2E0,5.4E1,1E0,1.357E3,5.2E1,6.75E2,1.11E2,9.08E2,1.629E3,1.81E2,6.7E1,7.7E2,9.98E2,1.972E3,4.64E2,1.74E2,5.5E1],"tree_param":{"num_deleted":"0","num_feature":"157","num_nodes":"377","size_leaf_vector":"1"}},{"base_weights":[-2.696413E1,-3.6080963E1,-2.0314281E1,-4.2764423E1,-3.2436615E1,-2.380395E1,-1.46334E1,-4.688403E1,-3.999947E1,-3.4768524E1,-3.0320404E1,-2.6245996E1,-2.1792719E1,-1.6416895E1,-8.715683E0,-4.961252E1,-4.5033203E1,-4.1461906E1,-6.7749486E0,-3.6123417E1,-3.3649803E1,-3.1198196E1,-5.113424E0,-2.7097223E1,-2.5029753E1,-2.2973272E1,-2.0509932E1,-1.7686222E1,-1.4486773E1,-1.0332074E1,-3.3434076E0,-8.977192E0,-8.496809E0,-8.077631E0,-7.7240357E0,-7.4342656E0,-7.1539536E0,-6.415138E0,-6.221361E0,-5.9803596E0,-5.787789E0,-5.547926E0,-5.353419E0,-2.7498096E1,-4.6141696E0,-4.4694815E0,-4.324681E0,-2.3388817E1,-3.8903227E0,-2.0912468E1,-3.4558241E0,-1.8449873E1,-1.6797756E1,-1.5190787E1,-1.3511555E1,-1.1541032E1,-8.7114935E0,-5.4102907E0,-3.3667427E-1,-4.9037876E0,-4.7590213E0,-4.179928E0,-4.035093E0,-3.745457E0,-3.6006463E0,-3.3109474E0,-3.166078E0,-3.0211995E0,-2.8763561E0,-2.7315216E0,-2.5864105E0,-2.4414618E0,-2.2965376E0,-2.151089E0,-1.1037215E1,-9.390934E0,-7.7946115E0,-6.1623483E0,-4.0518894E0,-1.5275168E0,9.664154E-1,-2.005676E0,-1.860682E0,-1.7154642E0,-1.5703506E0,-1.4257363E0,-1.279675E0,-1.1350726E0,-9.881348E-1,-8.5187435E-1,-6.1869013E-1,-1.937855E0,-1.214674E-1,1.5197189E-2,1.3453422E0,-4.0802133E-1,-2.647162E-1,3.0232057E-1,1.5950418E-1],"categories":[],"categories_nodes":[],"categories_segments":[],"categories_sizes":[],"default_left":[0,0,0,0,0,0,0,0,0,0,0,0,0,0,0,0,0,0,0,0,0,0,0,0,0,0,0,0,0,0,0,0,0,0,0,0,0,0,0,0,0,0,0,0,0,0,0,0,0,0,0,0,0,0,0,0,0,0,0,0,0,0,0,0,0,0,0,0,0,0,0,0,0,0,0,0,0,0,0,0,0,0,0,0,0,0,0,0,0,0,0,0,0,0,0,0,0,0,0],"id":3,"left_children":[1,3,5,7,9,11,13,15,17,19,21,23,25,27,29,31,33,35,-1,37,39,41,-1,43,45,47,49,51,53,55,57,-1,-1,-1,-1,-1,-1,-1,-1,-1,-1,-1,-1,59,-1,-1,-1,61,-1,63,-1,65,67,69,71,73,75,77,79,-1,-1,-1,-1,-1,-1,-1,-1,-1,-1,-1,-1,-1,-1,-1,81,83,85,87,89,91,93,-1,-1,-1,-1,-1,-1,-1,-1,-1,-1,95,-1,-1,97,-1,-1,-1,-1],"loss_changes":[2.907076E6,4.9185E5,5.49562E5,8.0205E4,6.3988E4,8.4026E4,1.11297E5,1.3185E4,8.0855E3,8.7275E3,6.8075E3,7.6235E3,1.3983E4,1.97035E4,2.1205969E4,7.3675E2,5.72E2,3.505E2,0E0,2.775E1,2.8275E2,5.3025E2,0E0,1.09625E3,1.66625E2,1.38E3,1.277625E3,3.122E3,2.076875E3,3.6112812E3,3.514772E3,0E0,0E0,0E0,0E0,0E0,0E0,0E0,0E0,0E0,0E0,0E0,0E0,7.05E1,0E0,0E0,0E0,2.21875E2,0E0,2.48875E2,0E0,2.321875E2,2.055625E2,1.6384375E2,1.0934375E2,2.8767188E2,4.4791797E2,3.2059863E2,3.6055923E2,0E0,0E0,0E0,0E0,0E0,0E0,0E0,0E0,0E0,0E0,0E0,0E0,0E0,0E0,0E0,2.328125E1,1.4902344E1,1.18359375E1,4.54834E0,3.499536E1,3.8697144E1,3.554458E1,0E0,0E0,0E0,0E0,0E0,0E0,0E0,0E0,0E0,0E0,8.1510315E0,0E0,0E0,9.445267E0,0E0,0E0,0E0,0E0],"parents":[2147483647,0,0,1,1,2,2,3,3,4,4,5,5,6,6,7,7,8,8,9,9,10,10,11,11,12,12,13,13,14,14,15,15,16,16,17,17,19,19,20,20,21,21,23,23,24,24,25,25,26,26,27,27,28,28,29,29,30,30,43,43,47,47,49,49,51,51,52,52,53,53,54,54,55,55,56,56,57,57,58,58,74,74,75,75,76,76,77,77,78,78,79,79,80,80,91,91,94,94],"right_children":[2,4,6,8,10,12,14,16,18,20,22,24,26,28,30,32,34,36,-1,38,40,42,-1,44,46,48,50,52,54,56,58,-1,-1,-1,-1,-1,-1,-1,-1,-1,-1,-1,-1,60,-1,-1,-1,62,-1,64,-1,66,68,70,72,74,76,78,80,-1,-1,-1,-1,-1,-1,-1,-1,-1,-1,-1,-1,-1,-1,-1,82,84,86,88,90,92,94,-1,-1,-1,-1,-1,-1,-1,-1,-1,-1,96,-1,-1,98,-1,-1,-1,-1],"split_conditions":[-9.903211E-2,-1.0428472E0,8.447829E-1,-1.6434567E0,-5.280389E-1,3.299747E-1,1.5311939E0,-2.0724635E0,-1.3002512E0,-7.85443E-1,-2.7063483E-1,1.5837198E-1,5.873788E-1,1.1879884E0,2.1318033E0,-2.3298676E0,-1.8150594E0,-1.471854E0,-6.7749486E0,-8.712444E-1,-6.138403E-1,-3.564362E-1,-5.113424E0,7.257062E-2,2.4417335E-1,5.0157744E-1,7.589815E-1,1.0163857E0,1.3595911E0,1.788598E0,2.5608103E0,-8.977192E0,-8.496809E0,-8.077631E0,-7.7240357E0,-7.4342656E0,-7.1539536E0,-6.415138E0,-6.221361E0,-5.9803596E0,-5.787789E0,-5.547926E0,-5.353419E0,-1.3230744E-2,-4.6141696E0,-4.4694815E0,-4.324681E0,4.1577607E-1,-3.8903227E0,6.7318016E-1,-3.4558241E0,9.3058425E-1,1.102187E0,1.2737898E0,1.4453925E0,1.6169952E0,1.9602007E0,2.3034062E0,2.8182144E0,-4.9037876E0,-4.7590213E0,-4.179928E0,-4.035093E0,-3.745457E0,-3.6006463E0,-3.3109474E0,-3.166078E0,-3.0211995E0,-2.8763561E0,-2.7315216E0,-2.5864105E0,-2.4414618E0,-2.2965376E0,-2.151089E0,1.7027966E0,1.8743993E0,2.046002E0,2.2176049E0,2.3892076E0,2.732413E0,2.9040158E0,-2.005676E0,-1.860682E0,-1.7154642E0,-1.5703506E0,-1.4257363E0,-1.279675E0,-1.1350726E0,-9.881348E-1,-8.5187435E-1,-6.1869013E-1,2.6466117E0,-1.214674E-1,1.5197189E-2,-1.2789513E0,-4.0802133E-1,-2.647162E-1,3.0232057E-1,1.5950418E-1],"split_indices":[17,17,17,17,17,17,17,17,17,17,17,17,17,17,17,17,17,17,0,17,17,17,0,17,17,17,17,17,17,17,17,0,0,0,0,0,0,0,0,0,0,0,0,17,0,0,0,17,0,17,0,17,17,17,17,17,17,17,17,0,0,0,0,0,0,0,0,0,0,0,0,0,0,0,17,17,17,17,17,17,17,0,0,0,0,0,0,0,0,0,0,17,0,0,6,0,0,0,0],"split_type":[0,0,0,0,0,0,0,0,0,0,0,0,0,0,0,0,0,0,0,0,0,0,0,0,0,0,0,0,0,0,0,0,0,0,0,0,0,0,0,0,0,0,0,0,0,0,0,0,0,0,0,0,0,0,0,0,0,0,0,0,0,0,0,0,0,0,0,0,0,0,0,0,0,0,0,0,0,0,0,0,0,0,0,0,0,0,0,0,0,0,0,0,0,0,0,0,0,0,0],"sum_hessian":[4.7958E4,2.0226E4,2.7732E4,7.135E3,1.3091E4,1.7178E4,1.0554E4,2.862E3,4.273E3,6.224E3,6.867E3,7.755E3,9.423E3,8.109E3,2.445E3,1.151E3,1.711E3,2.113E3,2.16E3,2.807E3,3.417E3,3.983E3,2.884E3,4.555E3,3.2E3,4.902E3,4.521E3,4.889E3,3.22E3,1.879E3,5.66E2,5.18E2,6.33E2,9E2,8.11E2,9.74E2,1.139E3,1.803E3,1.004E3,2.195E3,1.222E3,2.611E3,1.372E3,3.067E3,1.488E3,1.6E3,1.6E3,3.259E3,1.643E3,3.049E3,1.472E3,2.623E3,2.266E3,1.865E3,1.355E3,1.074E3,8.05E2,3.35E2,2.31E2,1.518E3,1.549E3,1.659E3,1.6E3,1.539E3,1.51E3,1.357E3,1.266E3,1.163E3,1.103E3,1.052E3,8.13E2,7.15E2,6.4E2,4.43E2,6.31E2,4.59E2,3.46E2,2.14E2,1.21E2,1.21E2,1.1E2,3.34E2,2.97E2,2.45E2,2.14E2,2.07E2,1.39E2,1.33E2,8.1E1,4.6E1,7.5E1,8E1,4.1E1,3.4E1,7.6E1,4E1,4E1,3.9E1,3.7E1],"tree_param":{"num_deleted":"0","num_feature":"157","num_nodes":"99","size_leaf_vector":"1"}},{"base_weights":[2.2253065E1,3.1970285E1,1.9762882E1,4.0857067E1,2.9430248E1,1.2623938E1,2.1993748E1,4.4306744E1,3.1789837E1,2.6996119E1,3.283665E1,1.4579714E1,9.40192E0,2.1517258E1,3.6692795E1,3.456926E1,4.8649513E1,3.0261885E1,4.3052525E1,2.6507074E1,4.0303535E1,1.2713196E1,3.330149E1,2.4947433E1,1.3862709E1,8.936514E0,2.0128105E1,1.8453188E1,2.3418512E1,3.5128674E1,4.92882E1,3.6702965E1,2.3366915E1,7.170317E1,4.804812E1,2.2254797E1,3.2179943E1,3.8934444E1,5.1421955E1,2.5262218E0,2.665677E1,7.132867E0,3.7408032E0,1.7222728E0,2.3275156E0,7.3723984E0,3.2893448E1,3.032974E1,1.7812344E1,1.377997E1,2.999118E1,9.771804E0,8.052459E0,1.9192675E1,6.660791E0,2.455946E1,1.6298681E1,2.485328E1,2.0399157E1,3.253361E1,3.7312256E1,5.5229916E1,7.8997793E0,3.5399433E1,4.463447E1,2.8621548E1,1.735805E1,1.9689833E1,1.1587421E1,4.8369183E1,4.5937624E0,2.9041122E1,1.889595E1,3.9727455E1,3.0959517E1,7.1075163E0,4.484261E0,9.438748E0,5.513342E0,5.8289847E0,2.654444E1,3.4978878E1,3.202175E1,2.6696396E1,4.4489174E1,2.7783413E1,1.48606E1,1.4321173E1,1.2998588E1,2.5766346E1,8.30823E0,2.3351333E0,9.500687E0,8.518473E0,7.4682035E0,1.3709343E1,2.0595558E1,3.8512276E1,2.4263517E1,1.6040012E1,2.4961645E1,3.505525E1,2.4715757E1,2.0110731E1,2.91084E1,2.9386616E1,3.4709053E1,3.6051674E1,7.0684752E0,9.806579E0,3.6595712E0,8.415801E0,3.4490635E1,8.387974E0,5.986044E0,3.7531283E0,3.2265736E1,3.7494402E0,2.512748E0,4.9361E1,4.219688E1,6.033656E0,4.3494787E0,1.4542537E1,3.5132816E0,6.175504E0,4.647727E1,4.8721867E0,3.264041E1,2.7129068E1,2.5366734E1,6.092491E0,6.8029323E0,5.7691545E0,3.1080069E1,2.5312456E1,6.613677E0,8.295529E0,5.05067E0,6.523729E0,2.5186584E1,1.5279776E1,1.8955487E0,1.4168229E1,1.6202911E1,4.41087E0,1.2969581E1,3.4015262E0,5.0120125E0,9.366074E0,1.28849325E1,8.437129E0,2.0042806E0,7.4100957E0,1.7192229E0,2.5243046E0,1.4416249E0,3.6465812E0,1.6380016E0,4.3347065E1,2.5074549E1,2.24331E1,2.4802355E1,1.9712751E1,1.5442379E1,2.7858856E1,2.189033E1,4.5452316E1,3.3424953E1,2.5668407E1,2.3729723E1,1.9833096E1,2.430671E1,4.3744173E0,3.5069473E1,2.8460487E1,7.167618E0,5.1598353E0,3.606889E1,6.4873943E0,5.4929733E0,3.388802E1,8.972197E0,5.9324203E0,3.6617732E0,5.0393196E1,4.429795E1,3.8375935E1,4.8038673E1,8.643293E-1,2.6246128E0,8.541279E0,4.9257503E0,3.316745E1,4.8279033E0,2.7013737E1,3.560042E1,2.54511E1,2.0483313E1,3.1095896E1,1.6849562E0,2.6616943E1,2.1164598E1,3.1085231E0,4.830811E0,1.3131853E0,2.7021663E0,2.622492E0,1.3991267E1,2.787843E0,3.2947392E0,1.42419E1,1.2744474E1,1.2763983E1,9.3016205E0,2.1558506E0,3.2652714E0,2.9216545E0,8.416442E0,7.336948E0,1.5978476E0,8.042924E0,5.446928E0,4.52517E0,1.5651493E0,3.9442322E0,1.3920593E0,3.1284409E1,2.4650621E1,1.9563103E1,5.736146E0,1.5777822E1,1.4274555E1,3.3041015E0,5.0935364E0,2.0633749E1,6.3454103E0,8.618265E0,4.849019E0,6.2890387E0,2.7324812E1,2.6392614E1,2.191384E1,2.4488056E1,2.3012283E1,2.0950048E1,1.8400043E1,4.9675417E0,3.2891207E0,6.208644E0,1.7394322E0,2.8808655E1,2.44251E0,6.5414896E0,5.1312065E0,7.961748E0,3.3006596E1,4.2636562E1,5.1029205E1,4.4772286E0,4.5214317E1,4.1760834E1,3.1423538E1,9.167789E0,7.207244E0,4.0643723E1,5.716837E0,2.7550636E1,4.61256E0,5.1554747E0,7.484874E0,6.385972E0,2.5404259E1,4.1006966E0,2.7440915E0,5.467488E0,2.7966166E0,2.6763256E1,1.0981191E0,4.204723E0,3.1763024E0,1.4090152E1,2.2950633E0,2.541646E0,2.1347008E0,1.2657987E1,2.6071146E0,2.4594185E0,1.614228E0,9.591605E0,1.5745106E0,8.391094E0,2.3004758E0,1.3547024E0,1.2309695E0,3.8392677E0,5.734824E0,4.197898E0,2.5224472E1,2.0270962E1,3.294849E0,1.5678983E1,3.2983527E0,1.3718995E1,1.4927888E1,2.1762197E1,3.248651E0,3.155668E1,2.2342749E1,3.8879932E1,2.626606E1,2.5888523E1,1.9094809E1,2.4300716E1,4.7735667E0,2.2789145E1,4.4589286E0,2.0382963E1,2.2124878E1,1.9284992E1,1.7829983E1,5.0938087E0,2.9839425E0,5.9795003E0,5.0607843E0,6.3986087E0,8.082184E0,5.3920517E0,9.00401E0,8.339453E0,6.739048E0,4.1295195E0,7.523036E0,4.8149E0,6.312569E0,3.8659499E0,7.801843E0,4.8782067E0,4.5600977E0,4.4673424E0,2.8037724E0,1.5315363E0,4.722561E0,2.4913785E0,2.3535178E0,2.2584784E0,2.1164114E0,1.6999495E0,1.5170856E0,1.5063719E0,1.4097127E0,4.441425E0,2.649071E0,4.577549E0,3.5443509E0,2.844175E0,2.6599848E0,2.605002E0,2.3549578E0,2.6751707E0,2.3670213E0,3.8502724E0,1.2608826E0,4.6290054E0,6.526086E0,1.9669708E0,4.072426E0,7.7092857E0,5.3102307E0,4.594532E0,5.6123223E0,4.7108045E0,4.2445793E0,3.3163297E0,5.0426955E0,4.390909E0,4.169337E0,3.9253757E0,4.157899E0,3.6353571E0,3.2594278E0,3.8240488E0,4.1474104E0,3.3037853E0,3.9527388E0,3.250151E0,3.0637548E0],"categories":[],"categories_nodes":[],"categories_segments":[],"categories_sizes":[],"default_left":[0,0,0,0,0,0,0,0,0,0,0,0,0,0,0,0,0,0,0,0,0,0,0,0,0,0,0,0,0,0,0,0,0,0,0,0,0,0,0,0,0,0,0,0,0,0,0,0,0,0,0,0,0,0,0,0,0,0,0,0,0,0,0,0,0,0,0,0,0,0,0,0,0,0,0,0,0,0,0,0,0,0,0,0,0,0,0,0,0,0,0,0,0,0,0,0,0,0,0,0,0,0,0,0,0,0,0,0,0,0,0,0,0,0,0,0,0,0,0,0,0,0,0,0,0,0,0,0,0,0,0,0,0,0,0,0,0,0,0,0,0,0,0,0,0,0,0,0,0,0,0,0,0,0,0,0,0,0,0,0,0,0,0,0,0,0,0,0,0,0,0,0,0,0,0,0,0,0,0,0,0,0,0,0,0,0,0,0,0,0,0,0,0,0,0,0,0,0,0,0,0,0,0,0,0,0,0,0,0,0,0,0,0,0,0,0,0,0,0,0,0,0,0,0,0,0,0,0,0,0,0,0,0,0,0,0,0,0,0,0,0,0,0,0,0,0,0,0,0,0,0,0,0,0,0,0,0,0,0,0,0,0,0,0,0,0,0,0,0,0,0,0,0,0,0,0,0,0,0,0,0,0,0,0,0,0,0,0,0,0,0,0,0,0,0,0,0,0,0,0,0,0,0,0,0,0,0,0,0,0,0,0,0,0,0,0,0,0,0,0,0,0,0,0,0,0,0,0,0,0,0,0,0,0,0,0,0,0,0,0,0,0,0,0,0,0,0,0,0,0,0,0,0,0,0,0,0,0,0,0,0,0,0,0,0,0,0,0,0,0,0,0,0,0,0,0,0,0,0,0,0,0,0,0,0,0,0],"id":4,"left_children":[1,3,5,7,9,11,13,15,17,19,21,23,25,27,29,31,33,35,37,39,41,43,45,47,49,51,53,55,57,59,61,63,65,67,69,71,73,75,77,-1,79,-1,-1,-1,-1,-1,81,83,85,87,89,91,93,95,-1,97,99,101,103,105,107,109,-1,111,113,115,117,-1,-1,119,-1,121,123,125,127,-1,-1,-1,-1,-1,129,131,133,135,137,139,141,143,145,147,-1,-1,149,151,153,155,157,159,161,163,165,167,169,171,173,175,177,179,-1,-1,-1,-1,181,-1,-1,-1,183,-1,-1,185,187,-1,-1,189,-1,-1,191,-1,193,195,197,-1,-1,-1,199,201,-1,-1,-1,-1,203,205,-1,207,209,-1,211,-1,-1,213,215,217,-1,219,-1,-1,-1,-1,-1,221,223,225,227,229,231,233,235,237,239,241,243,245,247,-1,249,251,-1,-1,253,-1,-1,255,-1,-1,-1,257,259,261,263,-1,-1,-1,-1,265,-1,267,269,271,273,275,-1,277,279,-1,-1,-1,-1,-1,281,-1,-1,283,285,287,289,-1,-1,-1,291,293,-1,-1,-1,-1,-1,-1,-1,295,297,299,-1,301,303,-1,-1,305,-1,-1,-1,-1,307,309,311,313,315,317,319,-1,-1,-1,-1,321,-1,-1,-1,-1,323,325,327,-1,329,331,333,-1,-1,335,-1,337,-1,-1,-1,-1,339,-1,-1,-1,-1,341,-1,-1,-1,343,-1,-1,-1,345,-1,-1,-1,347,-1,349,-1,-1,-1,-1,-1,-1,351,353,-1,355,-1,357,359,361,-1,363,365,367,369,371,373,375,-1,377,-1,379,381,383,385,-1,-1,-1,-1,-1,-1,-1,-1,-1,-1,-1,-1,-1,-1,-1,-1,-1,-1,-1,-1,-1,-1,-1,-1,-1,-1,-1,-1,-1,-1,-1,-1,-1,-1,-1,-1,-1,-1,-1,-1,-1,-1,-1,-1,-1,-1,-1,-1,-1,-1,-1,-1,-1,-1,-1,-1,-1,-1,-1,-1,-1,-1,-1,-1,-1,-1],"loss_changes":[1.161458E6,2.20367E5,6.0854E5,6.723275E4,6.2647E4,5.726E4,2.03489E5,6.56165E4,9.594875E3,2.831125E4,2.941125E4,4.1875875E4,1.7049312E4,1.64058E5,1.7002875E4,1.11448125E4,1.314125E4,7.7350312E3,1.2874844E3,7.55075E3,3.5578125E2,2.3513672E1,1.015375E4,1.3708359E4,6.811375E3,2.377625E3,1.9340039E3,1.41883E5,7.5088E4,3.9091875E3,1.1515625E3,3.3138125E3,2.2068867E3,2.0772031E3,6.72775E3,2.0491133E3,3.222375E3,4.0128125E2,2.0863281E1,0E0,2.58225E3,0E0,0E0,0E0,0E0,0E0,4.73325E3,9.983031E3,4.4091797E3,2.1064375E3,1.2269238E3,1.5274375E3,3.893828E2,8.7021484E2,0E0,1.10785E4,1.765E4,1.6036E4,1.37365E4,1.9795E3,7.7475E2,1.0753125E2,0E0,3.0650625E3,8.852656E2,6.8572266E2,2.7563574E2,0E0,0E0,5.21325E3,0E0,2.580586E2,1.5761133E2,8.388906E2,1.4779062E3,0E0,0E0,0E0,0E0,0E0,2.4585E3,2.095E2,1.0055E3,1.9607969E3,9.9297656E2,3.106836E2,1.0049414E2,7.46125E2,5.53375E2,6.286133E1,0E0,0E0,6.332656E2,1.4030078E2,4.304297E1,2.450293E1,6.292578E1,3.1001094E3,2.384625E3,1.6834875E4,1.6836562E3,1.7596406E3,1.0568E4,6.03275E3,3.9660781E3,9.864375E2,9.7459375E2,6.2528125E2,0E0,0E0,0E0,0E0,2.3168125E3,0E0,0E0,0E0,3.223047E1,0E0,0E0,3.421E3,2.2597188E3,0E0,0E0,6.4680176E0,0E0,0E0,5.5972656E1,0E0,1.1703125E2,2.147625E3,2.560625E2,0E0,0E0,0E0,1.398125E2,4.67875E2,0E0,0E0,0E0,0E0,2.126289E2,4.544922E0,0E0,2.49625E2,8.347656E0,0E0,4.984375E2,0E0,0E0,2.4954688E2,5.707422E1,5.058203E1,0E0,3.6726562E1,0E0,0E0,0E0,0E0,0E0,4.234922E2,2.9470703E1,1.59375E1,1.632625E3,1.7120625E3,2.468625E3,8.609453E2,1.6013086E3,4.6783203E2,1.3972188E3,1.572975E4,2.77525E3,7.920125E3,7.0890938E3,0E0,2.6032812E2,4.9766406E2,0E0,0E0,7.391406E2,0E0,0E0,2.3743438E3,0E0,0E0,0E0,2.419375E3,2.02475E3,1.4159219E3,4.228672E2,0E0,0E0,0E0,0E0,2.4964062E2,0E0,6.905E2,8.29E2,1.519375E2,1.4080957E2,1.5375E1,0E0,2.1463281E2,6.2353516E1,0E0,0E0,0E0,0E0,0E0,9.38125E1,0E0,0E0,3.2789062E1,2.0940625E2,2.8460938E1,8.521875E1,0E0,0E0,0E0,2.5445312E1,4.2027344E1,0E0,0E0,0E0,0E0,0E0,0E0,0E0,1.6782031E2,5.4275E2,3.7953125E2,0E0,1.346375E3,4.0896875E2,0E0,0E0,8.753906E0,0E0,0E0,0E0,0E0,4.32625E2,7.22975E3,1.0449219E4,9.97625E2,1.2085E3,1.62875E3,9.135625E2,0E0,0E0,0E0,0E0,7.015625E0,0E0,0E0,0E0,0E0,7.1875E2,2.8221094E2,2.087875E3,0E0,1.2480938E3,5.734844E2,1.0238281E1,0E0,0E0,4.4093164E2,0E0,1.13375E2,0E0,0E0,0E0,0E0,1.75625E1,0E0,0E0,0E0,0E0,7.275781E1,0E0,0E0,0E0,5.78125E0,0E0,0E0,0E0,1.0853125E2,0E0,0E0,0E0,3.140625E0,0E0,6.7773438E0,0E0,0E0,0E0,0E0,0E0,0E0,3.96625E2,3.34375E0,0E0,1.219625E3,0E0,1.5510938E2,1.6070312E2,3.760547E1,0E0,2.1945312E1,2.3149414E1,1.3295156E3,2.76275E3,2.4428125E2,8.6353125E2,6.665E2,0E0,7.395E2,0E0,8.515E2,1.80875E2,1.085E3,1.5640625E2,0E0,0E0,0E0,0E0,0E0,0E0,0E0,0E0,0E0,0E0,0E0,0E0,0E0,0E0,0E0,0E0,0E0,0E0,0E0,0E0,0E0,0E0,0E0,0E0,0E0,0E0,0E0,0E0,0E0,0E0,0E0,0E0,0E0,0E0,0E0,0E0,0E0,0E0,0E0,0E0,0E0,0E0,0E0,0E0,0E0,0E0,0E0,0E0,0E0,0E0,0E0,0E0,0E0,0E0,0E0,0E0,0E0,0E0,0E0,0E0,0E0,0E0,0E0,0E0,0E0,0E0],"parents":[2147483647,0,0,1,1,2,2,3,3,4,4,5,5,6,6,7,7,8,8,9,9,10,10,11,11,12,12,13,13,14,14,15,15,16,16,17,17,18,18,19,19,20,20,21,21,22,22,23,23,24,24,25,25,26,26,27,27,28,28,29,29,30,30,31,31,32,32,33,33,34,34,35,35,36,36,37,37,38,38,40,40,46,46,47,47,48,48,49,49,50,50,51,51,52,52,53,53,55,55,56,56,57,57,58,58,59,59,60,60,61,61,63,63,64,64,65,65,66,66,69,69,71,71,72,72,73,73,74,74,80,80,81,81,82,82,83,83,84,84,85,85,86,86,87,87,88,88,89,89,92,92,93,93,94,94,95,95,96,96,97,97,98,98,99,99,100,100,101,101,102,102,103,103,104,104,105,105,106,106,107,107,112,112,116,116,119,119,120,120,123,123,126,126,128,128,129,129,130,130,134,134,135,135,140,140,141,141,143,143,144,144,146,146,149,149,150,150,151,151,153,153,159,159,160,160,161,161,162,162,163,163,164,164,165,165,166,166,167,167,168,168,169,169,170,170,171,171,172,172,174,174,175,175,178,178,181,181,185,185,186,186,187,187,188,188,193,193,195,195,196,196,197,197,198,198,199,199,201,201,202,202,208,208,211,211,212,212,213,213,214,214,218,218,219,219,227,227,228,228,229,229,231,231,232,232,235,235,240,240,241,241,242,242,243,243,244,244,245,245,246,246,251,251,256,256,257,257,258,258,260,260,261,261,262,262,265,265,267,267,272,272,277,277,281,281,285,285,289,289,291,291,298,298,299,299,301,301,303,303,304,304,305,305,307,307,308,308,309,309,310,310,311,311,312,312,313,313,315,315,317,317,318,318,319,319,320,320],"right_children":[2,4,6,8,10,12,14,16,18,20,22,24,26,28,30,32,34,36,38,40,42,44,46,48,50,52,54,56,58,60,62,64,66,68,70,72,74,76,78,-1,80,-1,-1,-1,-1,-1,82,84,86,88,90,92,94,96,-1,98,100,102,104,106,108,110,-1,112,114,116,118,-1,-1,120,-1,122,124,126,128,-1,-1,-1,-1,-1,130,132,134,136,138,140,142,144,146,148,-1,-1,150,152,154,156,158,160,162,164,166,168,170,172,174,176,178,180,-1,-1,-1,-1,182,-1,-1,-1,184,-1,-1,186,188,-1,-1,190,-1,-1,192,-1,194,196,198,-1,-1,-1,200,202,-1,-1,-1,-1,204,206,-1,208,210,-1,212,-1,-1,214,216,218,-1,220,-1,-1,-1,-1,-1,222,224,226,228,230,232,234,236,238,240,242,244,246,248,-1,250,252,-1,-1,254,-1,-1,256,-1,-1,-1,258,260,262,264,-1,-1,-1,-1,266,-1,268,270,272,274,276,-1,278,280,-1,-1,-1,-1,-1,282,-1,-1,284,286,288,290,-1,-1,-1,292,294,-1,-1,-1,-1,-1,-1,-1,296,298,300,-1,302,304,-1,-1,306,-1,-1,-1,-1,308,310,312,314,316,318,320,-1,-1,-1,-1,322,-1,-1,-1,-1,324,326,328,-1,330,332,334,-1,-1,336,-1,338,-1,-1,-1,-1,340,-1,-1,-1,-1,342,-1,-1,-1,344,-1,-1,-1,346,-1,-1,-1,348,-1,350,-1,-1,-1,-1,-1,-1,352,354,-1,356,-1,358,360,362,-1,364,366,368,370,372,374,376,-1,378,-1,380,382,384,386,-1,-1,-1,-1,-1,-1,-1,-1,-1,-1,-1,-1,-1,-1,-1,-1,-1,-1,-1,-1,-1,-1,-1,-1,-1,-1,-1,-1,-1,-1,-1,-1,-1,-1,-1,-1,-1,-1,-1,-1,-1,-1,-1,-1,-1,-1,-1,-1,-1,-1,-1,-1,-1,-1,-1,-1,-1,-1,-1,-1,-1,-1,-1,-1,-1,-1],"split_conditions":[-6.7500955E-1,1E0,-5.3408164E-1,-6.741498E-1,7.27297E-1,6.963606E-1,9.467524E-1,-5.381821E-1,2.6769433E0,7.362847E-1,-5.3408164E-1,3.365646E-1,-1.0559262E-1,4.6641514E-1,3.972067E0,1.6045908E-2,-1.5563838E0,-5.381821E-1,3.972067E0,-5.5185E-1,-9.723064E-1,9.533883E-1,-1.2789513E0,-8.5288304E-1,9.467524E-1,-1.947608E-1,2.6769433E0,-4.763587E-1,3.5343423E-1,2.1200204E0,-5.8578193E-1,-1.11295216E-1,2.6480854E-1,-5.0477867E0,1E0,-6.160896E-1,-1.2569803E0,1E0,3.577558E-1,2.5262218E0,2.9693207E-1,7.132867E0,3.7408032E0,1.7222728E0,2.3275156E0,7.3723984E0,-1.521162E0,1E0,-4.778432E-2,-5.317718E-2,1.396889E0,-1.4040219E0,-8.0415875E-2,-1.5708708E0,6.660791E0,-9.314226E-1,-1.1138033E-1,-1.9605137E0,-1.121651E-1,5.0058514E-1,3.0363717E0,3.1992235E0,7.8997793E0,-1.0390323E0,1.0700293E0,-1.1945282E0,-1.1781272E0,1.9689833E1,1.1587421E1,-1.8456338E-1,4.5937624E0,2.4468146E-1,1.4699681E0,7.2071683E-1,-7.233256E-1,7.1075163E0,4.484261E0,9.438748E0,5.513342E0,5.8289847E0,-9.140517E-1,3.0098593E-1,-1.3153411E0,2.6769433E0,-1.3370979E0,-6.6643536E-1,1.7395549E-1,1.2804791E-1,-1.2789513E0,1.4699681E0,8.30823E0,2.3351333E0,3.3202904E-1,3.0098593E-1,1.8005674E-1,1E0,9.3398535E-1,1E0,-5.848145E-1,1.0581568E-1,9.8930544E-1,-3.777127E-1,2.4209528E-1,1.2522807E0,-1.3370979E0,1E0,-1.4539843E0,1.0824862E0,7.0684752E0,9.806579E0,3.6595712E0,8.415801E0,1E0,8.387974E0,5.986044E0,3.7531283E0,-5.333319E-1,3.7494402E0,2.512748E0,8.2530165E-1,-1.12773664E-1,6.033656E0,4.3494787E0,7.2739637E-1,3.5132816E0,6.175504E0,1E0,4.8721867E0,1.2344043E0,-1.1239572E-1,3.6777535E-1,6.092491E0,6.8029323E0,5.7691545E0,1.3777586E0,2.6088421E0,6.613677E0,8.295529E0,5.05067E0,6.523729E0,-3.1654063E-1,-2.846909E0,1.8955487E0,-1.6674352E-1,4.7890475E-1,4.41087E0,3.7167147E-1,3.4015262E0,5.0120125E0,5.084505E-1,7.362847E-1,-2.9948083E-1,2.0042806E0,9.3280184E-1,1.7192229E0,2.5243046E0,1.4416249E0,3.6465812E0,1.6380016E0,3.9983284E-1,-2.6465864E0,-2.2818422E0,-1.5708708E0,1E0,1.0556047E0,-1.47172E0,1E0,1E0,-6.398489E-1,1.1202731E0,-1.4741085E-1,6.9712967E-1,-8.8280135E-1,4.3744173E0,8.2530165E-1,3.1992235E0,7.167618E0,5.1598353E0,3.7167147E-1,6.4873943E0,5.4929733E0,-1.2789992E0,8.972197E0,5.9324203E0,3.6617732E0,-1.1945282E0,-6.4485985E-1,3.4431565E-1,-1.8641968E0,8.643293E-1,2.6246128E0,8.541279E0,4.9257503E0,-4.5363033E-1,4.8279033E0,-1.704114E0,-1.5708708E0,-1.2789513E0,-4.763587E-1,4.5548075E-1,1.6849562E0,7.27297E-1,-1.6674352E-1,3.1085231E0,4.830811E0,1.3131853E0,2.7021663E0,2.622492E0,1E0,2.787843E0,3.2947392E0,1E0,1.546894E-1,-7.109031E-1,-2.8623676E-1,2.1558506E0,3.2652714E0,2.9216545E0,1E0,-8.712444E-1,1.5978476E0,8.042924E0,5.446928E0,4.52517E0,1.5651493E0,3.9442322E0,1.3920593E0,3.5409486E-1,2.6666415E-1,-7.7506495E-3,5.736146E0,3.3202904E-1,4.902133E-1,3.3041015E0,5.0935364E0,1E0,6.3454103E0,8.618265E0,4.849019E0,6.2890387E0,1E0,-2.8623676E-1,1.8018077E-1,1.358087E-1,1.2804791E-1,5.4705626E-1,-3.4356293E-1,4.9675417E0,3.2891207E0,6.208644E0,1.7394322E0,1.5266204E0,2.44251E0,6.5414896E0,5.1312065E0,7.961748E0,7.104718E-1,-1.1848592E0,-1.226333E0,4.4772286E0,-9.860372E-2,-2.4383383E0,2.1200204E0,9.167789E0,7.207244E0,-8.940158E-1,5.716837E0,5.7424664E-1,4.61256E0,5.1554747E0,7.484874E0,6.385972E0,4.355017E-1,4.1006966E0,2.7440915E0,5.467488E0,2.7966166E0,-1.2361187E0,1.0981191E0,4.204723E0,3.1763024E0,1E0,2.2950633E0,2.541646E0,2.1347008E0,3.7675884E-2,2.6071146E0,2.4594185E0,1.614228E0,1E0,1.5745106E0,-1.2615384E-1,2.3004758E0,1.3547024E0,1.2309695E0,3.8392677E0,5.734824E0,4.197898E0,3.2290125E-1,-8.579161E-1,3.294849E0,-2.0573135E-1,3.2983527E0,-2.1762979E-1,1.4984534E0,1.0556047E0,3.248651E0,-1.0604901E0,-1.1827534E0,-1.2750837E-1,-1.12278424E-1,-7.514013E-2,-1.121651E-1,-5.3107035E-1,4.7735667E0,-1.2404892E-1,4.4589286E0,1.2540501E-1,1.0581568E-1,9.533883E-1,-8.708548E-1,5.0938087E0,2.9839425E0,5.9795003E0,5.0607843E0,6.3986087E0,8.082184E0,5.3920517E0,9.00401E0,8.339453E0,6.739048E0,4.1295195E0,7.523036E0,4.8149E0,6.312569E0,3.8659499E0,7.801843E0,4.8782067E0,4.5600977E0,4.4673424E0,2.8037724E0,1.5315363E0,4.722561E0,2.4913785E0,2.3535178E0,2.2584784E0,2.1164114E0,1.6999495E0,1.5170856E0,1.5063719E0,1.4097127E0,4.441425E0,2.649071E0,4.577549E0,3.5443509E0,2.844175E0,2.6599848E0,2.605002E0,2.3549578E0,2.6751707E0,2.3670213E0,3.8502724E0,1.2608826E0,4.6290054E0,6.526086E0,1.9669708E0,4.072426E0,7.7092857E0,5.3102307E0,4.594532E0,5.6123223E0,4.7108045E0,4.2445793E0,3.3163297E0,5.0426955E0,4.390909E0,4.169337E0,3.9253757E0,4.157899E0,3.6353571E0,3.2594278E0,3.8240488E0,4.1474104E0,3.3037853E0,3.9527388E0,3.250151E0,3.0637548E0],"split_indices":[3,23,11,5,2,4,14,11,14,14,11,5,16,11,14,2,9,11,14,11,3,10,6,6,14,3,14,2,2,14,2,16,4,5,24,11,4,31,0,0,11,0,0,0,0,0,3,25,2,4,12,8,3,0,0,5,16,5,16,11,14,1,0,9,10,14,3,0,0,2,0,5,14,12,10,0,0,0,0,0,2,14,3,14,0,4,4,14,6,14,0,0,14,14,14,111,2,23,10,4,16,3,4,10,0,25,0,4,0,0,0,0,34,0,0,0,6,0,0,0,16,0,0,10,0,0,41,0,0,16,4,0,0,0,4,16,0,0,0,0,13,4,0,4,14,0,2,0,0,2,14,16,0,15,0,0,0,0,0,3,2,2,0,25,1,12,51,104,6,12,10,3,8,0,0,1,0,0,2,0,0,13,0,0,0,14,9,2,3,0,0,0,0,5,0,3,0,6,2,11,0,2,4,0,0,0,0,0,111,0,0,111,14,5,3,0,0,0,47,17,0,0,0,0,0,0,0,3,9,4,0,14,2,0,0,22,0,0,0,0,23,3,2,14,14,11,0,0,0,0,0,0,0,0,0,0,12,12,8,0,4,14,14,0,0,13,0,8,0,0,0,0,2,0,0,0,0,9,0,0,0,107,0,0,0,4,0,0,0,111,0,3,0,0,0,0,0,0,11,5,0,10,0,3,9,1,0,8,13,9,16,2,16,2,0,13,0,3,4,10,4,0,0,0,0,0,0,0,0,0,0,0,0,0,0,0,0,0,0,0,0,0,0,0,0,0,0,0,0,0,0,0,0,0,0,0,0,0,0,0,0,0,0,0,0,0,0,0,0,0,0,0,0,0,0,0,0,0,0,0,0,0,0,0,0,0,0],"split_type":[0,0,0,0,0,0,0,0,0,0,0,0,0,0,0,0,0,0,0,0,0,0,0,0,0,0,0,0,0,0,0,0,0,0,0,0,0,0,0,0,0,0,0,0,0,0,0,0,0,0,0,0,0,0,0,0,0,0,0,0,0,0,0,0,0,0,0,0,0,0,0,0,0,0,0,0,0,0,0,0,0,0,0,0,0,0,0,0,0,0,0,0,0,0,0,0,0,0,0,0,0,0,0,0,0,0,0,0,0,0,0,0,0,0,0,0,0,0,0,0,0,0,0,0,0,0,0,0,0,0,0,0,0,0,0,0,0,0,0,0,0,0,0,0,0,0,0,0,0,0,0,0,0,0,0,0,0,0,0,0,0,0,0,0,0,0,0,0,0,0,0,0,0,0,0,0,0,0,0,0,0,0,0,0,0,0,0,0,0,0,0,0,0,0,0,0,0,0,0,0,0,0,0,0,0,0,0,0,0,0,0,0,0,0,0,0,0,0,0,0,0,0,0,0,0,0,0,0,0,0,0,0,0,0,0,0,0,0,0,0,0,0,0,0,0,0,0,0,0,0,0,0,0,0,0,0,0,0,0,0,0,0,0,0,0,0,0,0,0,0,0,0,0,0,0,0,0,0,0,0,0,0,0,0,0,0,0,0,0,0,0,0,0,0,0,0,0,0,0,0,0,0,0,0,0,0,0,0,0,0,0,0,0,0,0,0,0,0,0,0,0,0,0,0,0,0,0,0,0,0,0,0,0,0,0,0,0,0,0,0,0,0,0,0,0,0,0,0,0,0,0,0,0,0,0,0,0,0,0,0,0,0,0,0,0,0,0,0,0,0,0,0,0,0,0,0,0,0,0,0,0,0,0,0,0,0,0],"sum_hessian":[4.8014E4,9.793E3,3.8221E4,2.175E3,7.618E3,9.101E3,2.912E4,1.574E3,6.01E2,4.446E3,3.172E3,5.662E3,3.439E3,2.8207E4,9.13E2,4.87E2,1.087E3,5.31E2,7E1,4.29E3,1.56E2,7.2E1,3.1E3,3.65E2,5.297E3,3.297E3,1.42E2,1.0803E4,1.7404E4,8.14E2,9.9E1,4.08E2,7.9E1,2.6E1,1.061E3,1.04E2,4.27E2,4.9E1,2.1E1,5.3E1,4.237E3,1.53E2,3E0,1.3E1,5.9E1,1.37E2,2.963E3,2.07E2,1.58E2,5.271E3,2.6E1,1.692E3,1.605E3,1.36E2,6E0,2.816E3,7.987E3,1.1795E4,5.609E3,3.76E2,4.38E2,3.9E1,6E1,3.53E2,5.5E1,4.1E1,3.8E1,2E0,2.4E1,1.045E3,1.6E1,3.3E1,7.1E1,5.7E1,3.7E2,4.3E1,6E0,1.8E1,3E0,6.9E1,4.168E3,8.67E2,2.096E3,1.66E2,4.1E1,3.5E1,1.23E2,3.108E3,2.163E3,2.2E1,4E0,1.19E2,1.573E3,8.88E2,7.17E2,2.9E1,1.07E2,5.7E1,2.759E3,7.757E3,2.3E2,1.55E2,1.164E4,5.431E3,1.78E2,1.57E2,2.19E2,3.11E2,1.27E2,3.8E1,1E0,2.2E1,3.31E2,4.1E1,1.4E1,1.5E1,2.6E1,1.5E1,2.3E1,8.97E2,1.48E2,1.3E1,2E1,1.6E1,5.5E1,3.6E1,2.1E1,1.3E2,2.4E2,2.777E3,1.391E3,8.07E2,6E1,1.115E3,9.81E2,1.49E2,1.7E1,3.4E1,7E0,6E0,2.9E1,1.1E2,1.3E1,2.879E3,2.29E2,4E0,2.159E3,8E0,1.4E1,1.515E3,5.8E1,8.66E2,2.2E1,7.02E2,1.5E1,2.5E1,4E0,1.05E2,2E0,4.1E1,1.6E1,6.33E2,2.126E3,1.083E3,6.674E3,1.16E2,1.14E2,1.9E1,1.36E2,5.913E3,5.727E3,5.097E3,3.34E2,1.06E2,7.2E1,1.47E2,1E1,4.7E1,1.72E2,2.6E2,5.1E1,3.21E2,1E1,2.2E1,4E0,7.41E2,1.56E2,9.2E1,5.6E1,1E0,1.5E1,1.8E1,3E0,2.15E2,2.5E1,2.742E3,3.5E1,1.365E3,2.6E1,9.8E2,1E0,1.11E2,3.8E1,8E0,2.1E1,2E0,1.08E2,5.36E2,2.343E3,2.06E2,2.3E1,3.19E2,1.84E3,2.6E1,1.489E3,5.4E1,4E0,1E0,8.65E2,6.76E2,2.6E1,3.3E1,8E0,1.5E1,1E0,6.32E2,1E0,4.6E1,2.08E3,1.072E3,1.1E1,5.179E3,1.495E3,1.4E1,1.02E2,1.06E2,8E0,1.5E1,4E0,9.6E1,4E1,4.954E3,9.59E2,2.775E3,2.952E3,2.86E3,2.237E3,1.94E2,1.4E2,7.1E1,1E0,1.43E2,4E0,1.45E2,2.7E1,2.1E1,3E2,5.9E1,6.82E2,8E0,1.48E2,6E1,3.2E1,3.3E1,2.3E1,1.4E1,2.01E2,1.597E3,1.145E3,2E1,1.5E1,4E0,1.361E3,1.5E1,1.1E1,9.78E2,2E0,1.1E2,1E0,1.8E1,2E1,2.11E3,2.33E2,2.85E2,3.4E1,1.771E3,6.9E1,1.8E1,8E0,7.95E2,6.94E2,8.62E2,3E0,3.11E2,3.65E2,7E0,3.9E1,9.06E2,1.174E3,5.65E2,5.07E2,5.017E3,1.62E2,8.15E2,6.8E2,6.6E1,4E1,2E1,2E1,4.8E1,4.906E3,3.96E2,5.63E2,2.599E3,1.76E2,2.703E3,2.49E2,1.936E3,9.24E2,8.69E2,1.368E3,1.4E2,3E0,2.38E2,6.2E1,2.3E1,3.6E1,8E0,6.74E2,1.09E2,3.9E1,4E0,5.6E1,1.9E1,1.3E1,3E0,1.1E1,1.401E3,1.96E2,1.357E3,4E0,1E0,1.09E2,1.86E3,2.5E2,1.333E3,4.38E2,7.26E2,6.9E1,5.67E2,2.95E2,1.167E3,7E0,7E0,5.58E2,2.576E3,2.441E3,1.75E2,6.4E2,5.6E2,1.2E2,6.5E1,1E0,1.2E1,8E0,2E0,1.8E1,2.9E1,1.9E1,4.81E3,9.6E1,2.53E2,1.43E2,5.52E2,1.1E1,1.167E3,1.432E3,1.797E3,9.06E2,1.653E3,2.83E2,7.5E2,1.74E2,7.59E2,1.1E2,4.97E2,8.71E2],"tree_param":{"num_deleted":"0","num_feature":"157","num_nodes":"387","size_leaf_vector":"1"}},{"base_weights":[-2.2223951E1,-2.9746645E1,-1.674987E1,-3.5772736E1,-2.69771E1,-1.962187E1,-1.2075854E1,-3.9145657E1,-3.365541E1,-2.8946072E1,-2.499766E1,-2.163202E1,-1.7964958E1,-1.3537862E1,-7.1840205E0,-4.091611E1,-6.5900736E0,-3.481679E1,-3.25016E1,-3.0081688E1,-2.773856E1,-2.5718372E1,-2.3990198E1,-2.2334255E1,-2.0630554E1,-1.8938816E1,-1.6908154E1,-1.4577972E1,-1.1947179E1,-8.51413E0,-2.7504354E0,-7.405065E0,-7.006925E0,-6.2474966E0,-6.009808E0,-5.794059E0,-5.5650997E0,-5.409578E0,-5.1761355E0,-4.995619E0,-4.818301E0,-4.637914E0,-4.4609113E0,-4.2797456E0,-4.1503935E0,-2.2666134E1,-3.8037362E0,-3.684423E0,-3.5650785E0,-1.9283175E1,-3.206997E0,-1.723948E1,-2.8488367E0,-1.5205473E1,-1.3850242E1,-1.2521626E1,-1.1141089E1,-9.516245E0,-7.1718845E0,-4.475297E0,-2.5227475E-1,-4.042455E0,-3.9231286E0,-3.4457352E0,-3.3263307E0,-3.087591E0,-2.9682186E0,-2.7294157E0,-2.610035E0,-2.49062E0,-2.3712082E0,-2.2518225E0,-2.132279E0,-2.0127978E0,-1.8933355E0,-1.7735733E0,-9.100927E0,-7.732461E0,-6.4348216E0,-8.947835E-1,-3.3599737E0,-1.2586747E0,7.830892E-1,-1.6538098E0,-1.5343235E0,-1.4145108E0,-1.2952052E0,-1.1759576E0,-1.0556494E0,-6.484932E-1,-4.4307575E-1,-1.6115074E0,-1.0039819E-1,1.2943666E-2,1.1141675E0,-3.3706042E-1,-2.1827579E-1,2.4991551E-1,1.3187559E-1],"categories":[],"categories_nodes":[],"categories_segments":[],"categories_sizes":[],"default_left":[0,0,0,0,0,0,0,0,0,0,0,0,0,0,0,0,0,0,0,0,0,0,0,0,0,0,0,0,0,0,0,0,0,0,0,0,0,0,0,0,0,0,0,0,0,0,0,0,0,0,0,0,0,0,0,0,0,0,0,0,0,0,0,0,0,0,0,0,0,0,0,0,0,0,0,0,0,0,0,0,0,0,0,0,0,0,0,0,0,0,0,0,0,0,0,0,0,0,0],"id":5,"left_children":[1,3,5,7,9,11,13,15,17,19,21,23,25,27,29,31,-1,33,35,37,39,41,43,45,47,49,51,53,55,57,59,-1,-1,-1,-1,-1,-1,-1,-1,-1,-1,-1,-1,-1,-1,61,-1,-1,-1,63,-1,65,-1,67,69,71,73,75,77,79,81,-1,-1,-1,-1,-1,-1,-1,-1,-1,-1,-1,-1,-1,-1,-1,83,85,87,-1,89,91,93,-1,-1,-1,-1,-1,-1,-1,-1,95,-1,-1,97,-1,-1,-1,-1],"loss_changes":[1.975276E6,3.36652E5,3.726185E5,4.466E4,5.3531E4,5.7044E4,7.552975E4,6.22425E3,4.581E3,9.019E3,4.645E3,5.181E3,9.50525E3,1.334775E4,1.4328625E4,5.27875E2,0E0,1.7275E2,1.63E2,1.0335E3,2.7475E2,4.965E2,4.375E1,7.3825E2,1.07875E2,9.39625E2,8.64125E2,2.10825E3,1.3964375E3,2.4665312E3,2.4192192E3,0E0,0E0,0E0,0E0,0E0,0E0,0E0,0E0,0E0,0E0,0E0,0E0,0E0,0E0,4.0125E1,0E0,0E0,0E0,1.44125E2,0E0,1.646875E2,0E0,1.545E2,1.3728125E2,1.0865625E2,6.9609375E1,1.9107031E2,2.9278516E2,2.1245166E2,2.4115054E2,0E0,0E0,0E0,0E0,0E0,0E0,0E0,0E0,0E0,0E0,0E0,0E0,0E0,0E0,0E0,1.26328125E1,6.955078E0,6.1367188E0,0E0,2.306311E1,2.6108643E1,2.5586937E1,0E0,0E0,0E0,0E0,0E0,0E0,0E0,0E0,4.6483154E0,0E0,0E0,6.115097E0,0E0,0E0,0E0,0E0],"parents":[2147483647,0,0,1,1,2,2,3,3,4,4,5,5,6,6,7,7,8,8,9,9,10,10,11,11,12,12,13,13,14,14,15,15,17,17,18,18,19,19,20,20,21,21,22,22,23,23,24,24,25,25,26,26,27,27,28,28,29,29,30,30,45,45,49,49,51,51,53,53,54,54,55,55,56,56,57,57,58,58,59,59,60,60,76,76,77,77,78,78,80,80,81,81,82,82,91,91,94,94],"right_children":[2,4,6,8,10,12,14,16,18,20,22,24,26,28,30,32,-1,34,36,38,40,42,44,46,48,50,52,54,56,58,60,-1,-1,-1,-1,-1,-1,-1,-1,-1,-1,-1,-1,-1,-1,62,-1,-1,-1,64,-1,66,-1,68,70,72,74,76,78,80,82,-1,-1,-1,-1,-1,-1,-1,-1,-1,-1,-1,-1,-1,-1,-1,84,86,88,-1,90,92,94,-1,-1,-1,-1,-1,-1,-1,-1,96,-1,-1,98,-1,-1,-1,-1],"split_conditions":[-9.903211E-2,-1.1286485E0,8.447829E-1,-1.7292581E0,-5.280389E-1,3.299747E-1,1.5311939E0,-2.0724635E0,-1.3860526E0,-7.85443E-1,-2.7063483E-1,1.5837198E-1,5.873788E-1,1.1879884E0,2.1318033E0,-2.3298676E0,-6.5900736E0,-1.5576553E0,-1.2144499E0,-9.5704573E-1,-6.9964164E-1,-4.422376E-1,-1.8483348E-1,7.257062E-2,2.4417335E-1,5.0157744E-1,7.589815E-1,1.0163857E0,1.3595911E0,1.788598E0,2.5608103E0,-7.405065E0,-7.006925E0,-6.2474966E0,-6.009808E0,-5.794059E0,-5.5650997E0,-5.409578E0,-5.1761355E0,-4.995619E0,-4.818301E0,-4.637914E0,-4.4609113E0,-4.2797456E0,-4.1503935E0,-1.3230744E-2,-3.8037362E0,-3.684423E0,-3.5650785E0,4.1577607E-1,-3.206997E0,6.7318016E-1,-2.8488367E0,9.3058425E-1,1.102187E0,1.2737898E0,1.4453925E0,1.6169952E0,1.9602007E0,2.3034062E0,2.8182144E0,-4.042455E0,-3.9231286E0,-3.4457352E0,-3.3263307E0,-3.087591E0,-2.9682186E0,-2.7294157E0,-2.610035E0,-2.49062E0,-2.3712082E0,-2.2518225E0,-2.132279E0,-2.0127978E0,-1.8933355E0,-1.7735733E0,1.7027966E0,1.8743993E0,2.046002E0,-8.947835E-1,2.475009E0,2.732413E0,2.9040158E0,-1.6538098E0,-1.5343235E0,-1.4145108E0,-1.2952052E0,-1.1759576E0,-1.0556494E0,-6.484932E-1,-4.4307575E-1,2.6466117E0,-1.0039819E-1,1.2943666E-2,-1.2789513E0,-3.3706042E-1,-2.1827579E-1,2.4991551E-1,1.3187559E-1],"split_indices":[17,17,17,17,17,17,17,17,17,17,17,17,17,17,17,17,0,17,17,17,17,17,17,17,17,17,17,17,17,17,17,0,0,0,0,0,0,0,0,0,0,0,0,0,0,17,0,0,0,17,0,17,0,17,17,17,17,17,17,17,17,0,0,0,0,0,0,0,0,0,0,0,0,0,0,0,17,17,17,0,17,17,17,0,0,0,0,0,0,0,0,17,0,0,6,0,0,0,0],"split_type":[0,0,0,0,0,0,0,0,0,0,0,0,0,0,0,0,0,0,0,0,0,0,0,0,0,0,0,0,0,0,0,0,0,0,0,0,0,0,0,0,0,0,0,0,0,0,0,0,0,0,0,0,0,0,0,0,0,0,0,0,0,0,0,0,0,0,0,0,0,0,0,0,0,0,0,0,0,0,0,0,0,0,0,0,0,0,0,0,0,0,0,0,0,0,0,0,0,0,0],"sum_hessian":[4.7974E4,2.0205E4,2.7769E4,6.36E3,1.3845E4,1.7199E4,1.057E4,2.449E3,3.911E3,6.937E3,6.908E3,7.768E3,9.431E3,8.137E3,2.433E3,1.171E3,1.278E3,1.941E3,1.97E3,3.568E3,3.369E3,4.019E3,2.889E3,4.559E3,3.209E3,4.903E3,4.528E3,4.917E3,3.22E3,1.871E3,5.62E2,5.26E2,6.45E2,8.65E2,1.076E3,1.239E3,7.31E2,1.659E3,1.909E3,1.039E3,2.33E3,1.301E3,2.718E3,1.429E3,1.46E3,3.06E3,1.499E3,1.591E3,1.618E3,3.255E3,1.648E3,3.056E3,1.472E3,2.634E3,2.283E3,1.875E3,1.345E3,1.069E3,8.02E2,3.32E2,2.3E2,1.505E3,1.555E3,1.669E3,1.586E3,1.543E3,1.513E3,1.347E3,1.287E3,1.18E3,1.103E3,1.053E3,8.22E2,7.13E2,6.32E2,4.41E2,6.28E2,4.52E2,3.5E2,2.12E2,1.2E2,1.17E2,1.13E2,3.32E2,2.96E2,2.33E2,2.19E2,2.12E2,1.38E2,8.4E1,3.6E1,7.6E1,4.1E1,3.7E1,7.6E1,3.9E1,3.7E1,3.9E1,3.7E1],"tree_param":{"num_deleted":"0","num_feature":"157","num_nodes":"99","size_leaf_vector":"1"}},{"base_weights":[1.8350178E1,2.3385279E1,1.5825567E1,3.610855E1,2.2206501E1,1.0588635E1,1.7973076E1,3.769389E1,2.4467043E1,2.7223667E1,2.0626389E1,1.0142266E1,2.3045427E1,3.136655E1,1.7382645E1,3.6224274E1,4.6291035E1,5.2557325E0,2.221232E1,1.9641094E1,2.7639053E1,2.2304935E1,1.8251167E1,1.1706475E1,7.687232E0,2.1342947E1,6.0700727E0,4.074557E1,2.8421328E1,1.5343915E1,1.943248E1,3.1441242E1,3.8064167E1,4.517057E1,1.0502894E1,2.2419653E1,1.345811E0,1.6683575E1,2.9589653E1,2.7075218E1,3.3488182E1,2.1965897E1,3.183306E1,2.0314318E1,1.5841388E1,2.1972134E1,1.1409747E1,7.5031047E0,1.5068287E1,2.8308014E1,2.0123528E1,6.3356274E1,3.898713E1,2.6856256E1,4.0525906E1,2.0366714E1,1.3548451E1,1.9195786E1,2.930975E1,3.643778E1,2.7944239E1,3.477072E1,4.1247593E1,7.9558654E0,3.0735805E0,2.2504328E1,1.3495858E0,2.4470055E1,1.5734808E1,5.8275447E0,4.3246417E0,2.8478212E1,2.6198095E1,3.660187E1,3.0497793E1,2.5412651E1,2.1763844E1,2.9837578E1,3.4284966E1,2.2315859E1,1.5462639E1,1.5441198E1,2.448982E1,1.8953081E1,2.9593817E1,1.1330593E1,1.8193645E1,1.1448979E1,7.227947E0,1.1031613E1,3.0570924E0,3.7608614E0,3.277463E1,1.9725098E1,3.271876E1,1.6956913E1,9.593389E0,4.0699173E1,2.80442E1,2.3821932E1,3.2683765E1,5.221876E0,4.249015E1,2.0056973E1,3.0816929E1,1.3277773E1,2.3921345E1,1.7474466E1,1.982744E1,2.8192028E1,7.6233354E0,4.241376E0,3.7718487E1,1.481768E1,2.8876762E1,3.284211E1,7.9829097E0,3.1467659E1,4.2748756E1,3.9683816E0,1.415714E0,4.9919095E0,2.6654477E0,1.4331333E1,3.4540987E0,5.1015334E0,4.868552E0,4.7291307E0,2.560351E1,7.78257E0,6.1275783E0,2.983422E1,6.78704E0,3.276295E1,2.4082302E1,2.9877642E1,2.169805E1,2.424574E1,3.1133944E1,6.0533776E0,2.003603E0,2.409838E1,1.91644E1,1.5030609E1,4.834891E0,1.5344316E1,2.455192E1,3.1539457E0,4.7660155E0,2.0636482E1,2.252337E0,5.6505265E0,4.3769126E0,1.1688755E1,1.0550714E1,3.847748E0,1.5416809E1,2.7856047E0,1.9555588E0,7.1363273E0,1.6476153E0,1.1744606E0,2.048787E0,5.963197E0,2.749227E0,1.8235176E1,3.830009E0,6.304343E0,1.647023E0,3.9174387E0,4.1360577E1,2.3776957E1,6.125856E0,2.7915916E1,2.1583473E1,4.3038513E1,3.1054462E1,5.5072837E0,7.6736636E0,1.8545155E1,2.056531E1,4.443334E0,5.7314E0,1.6244625E1,1.2788321E1,2.2294594E1,6.025649E0,1.7225803E1,3.9448442E0,1.9649107E1,2.1979021E1,2.511978E1,5.4309006E0,4.6658325E0,3.8871105E1,1.1606776E0,2.8043997E0,2.9916338E1,3.426159E0,3.537537E1,2.6908287E1,3.1889437E1,2.8573384E0,4.2825863E1,1.977392E0,2.1829236E0,1.558251E1,4.379738E0,4.6024194E0,5.391704E0,4.538139E0,2.4472912E1,3.6442005E1,2.346465E1,3.1322155E1,4.223216E0,6.3300166E0,2.205129E1,2.0495031E1,4.3303075E0,1.51102E0,4.840121E0,5.8044577E0,2.3603676E1,3.3370888E1,2.1604755E1,1.5746809E1,1.487024E1,2.1183262E1,3.4666812E0,1.5227502E1,3.6817195E0,5.6464996E0,2.52006E0,2.2053074E1,1.1665418E1,4.5005383E0,1.0224406E1,1.1447281E1,2.0558429E0,2.9774146E0,6.9116645E0,7.8999047E0,2.0414928E1,1.678136E1,3.1253313E1,4.226462E1,4.701482E0,3.1300893E0,2.8950533E1,2.0623182E1,2.4155918E1,2.036947E1,7.8134217E0,4.563193E0,5.5080953E0,3.7782273E0,3.0168183E0,3.3412986E0,2.0506613E1,6.5729537E0,1.6101082E1,2.4162987E1,1.2706562E1,1.8152815E1,1.9284E1,2.393468E1,2.54353E1,1.7085098E1,2.005166E1,1.8684544E1,3.7295558E0,4.015263E0,1.9451824E0,4.447295E0,3.7224967E0,6.90927E0,3.8044436E0,3.0791199E1,2.1900587E1,3.6245003E1,2.8692287E1,3.850786E0,5.930723E0,4.586583E0,4.3012783E1,4.321183E0,2.783031E0,1.130917E0,1.3163247E0,4.4288955E0,3.919552E1,4.162109E0,2.3966917E1,2.9747868E0,7.643649E0,4.601029E0,2.228282E1,3.6248143E0,3.3329558E0,2.1049507E1,3.6411178E0,2.480299E1,3.361711E1,2.1877022E0,2.0751326E1,2.9104845E1,2.6565042E0,2.137209E1,2.5185263E0,2.683229E0,3.0267823E0,5.173966E0,2.4333105E0,1.5418039E1,5.744998E0,2.0569578E1,1.1134591E1,1.1942628E1,1.0110253E1,2.0362556E0,1.1336665E1,3.6094217E0,6.326905E0,7.466681E0,8.182146E0,1.2609266E0,4.690023E0,3.4188251E0,2.6336046E1,1.6266275E1,3.2846978E0,6.2833943E0,8.352683E0,4.0157658E1,3.0430145E1,2.4556223E1,3.192411E0,5.175046E0,2.8333673E1,2.128276E1,2.3526604E0,2.0827803E1,4.7220163E0,2.0374025E1,1.6032578E1,5.34377E0,3.561344E0,5.483463E0,1.3393756E1,1.2260622E1,1.6112421E1,4.0235405E0,4.06305E0,1.7432934E1,2.4149143E1,1.6165086E0,3.6484346E0,4.9978523E0,5.8996377E0,1.7047123E1,1.9194473E1,2.0456848E1,1.9243395E1,1.8080276E1,5.5074873E0,3.4505708E0,4.163057E0,2.1967304E0,5.8034606E0,6.8671227E0,4.68362E0,6.006796E0,7.815014E0,6.9468684E0,5.290179E0,7.502217E0,4.5956235E0,3.9946415E0,3.774542E0,3.9802496E0,3.7449777E0,2.9381225E0,5.87109E0,4.305752E0,5.9828057E0,3.026498E0,4.91651E0,3.59859E0,2.9186084E0,5.2594247E0,4.4302998E0,3.1589751E0,2.7009819E0,3.7702954E0,4.042187E0,3.0579388E0,2.0228121E0,1.8996491E0,2.0865464E0,2.4700465E0,1.7306417E0,1.8354783E0,1.8255537E0,2.1460934E0,1.0990684E0,1.7440459E0,1.9565011E0,1.300693E0,1.4160936E0,1.7455932E0,1.7614223E0,5.328904E0,3.3185093E0,2.6654074E0,7.081585E0,2.5532243E0,5.393737E0,2.4454412E0,3.8563614E0,5.1932793E0,3.5567946E0,5.2763743E0,3.9185832E0,2.8932407E0,3.6981695E0,2.054761E0,3.3556058E0,3.6607118E0,2.906961E0,2.6640048E0,2.329894E0,2.687875E0,2.0272858E0,2.2315567E0,2.3614688E0,3.2188783E0,3.2699087E0,2.3508732E0,4.451675E0,3.770355E0,3.1487799E0,2.898183E0,3.4081018E0,3.0877316E0,3.7488585E0,3.5246193E0,3.144974E0,3.4331899E0,3.075864E0,3.2651072E0],"categories":[],"categories_nodes":[],"categories_segments":[],"categories_sizes":[],"default_left":[0,0,0,0,0,0,0,0,0,0,0,0,0,0,0,0,0,0,0,0,0,0,0,0,0,0,0,0,0,0,0,0,0,0,0,0,0,0,0,0,0,0,0,0,0,0,0,0,0,0,0,0,0,0,0,0,0,0,0,0,0,0,0,0,0,0,0,0,0,0,0,0,0,0,0,0,0,0,0,0,0,0,0,0,0,0,0,0,0,0,0,0,0,0,0,0,0,0,0,0,0,0,0,0,0,0,0,0,0,0,0,0,0,0,0,0,0,0,0,0,0,0,0,0,0,0,0,0,0,0,0,0,0,0,0,0,0,0,0,0,0,0,0,0,0,0,0,0,0,0,0,0,0,0,0,0,0,0,0,0,0,0,0,0,0,0,0,0,0,0,0,0,0,0,0,0,0,0,0,0,0,0,0,0,0,0,0,0,0,0,0,0,0,0,0,0,0,0,0,0,0,0,0,0,0,0,0,0,0,0,0,0,0,0,0,0,0,0,0,0,0,0,0,0,0,0,0,0,0,0,0,0,0,0,0,0,0,0,0,0,0,0,0,0,0,0,0,0,0,0,0,0,0,0,0,0,0,0,0,0,0,0,0,0,0,0,0,0,0,0,0,0,0,0,0,0,0,0,0,0,0,0,0,0,0,0,0,0,0,0,0,0,0,0,0,0,0,0,0,0,0,0,0,0,0,0,0,0,0,0,0,0,0,0,0,0,0,0,0,0,0,0,0,0,0,0,0,0,0,0,0,0,0,0,0,0,0,0,0,0,0,0,0,0,0,0,0,0,0,0,0,0,0,0,0,0,0,0,0,0,0,0,0,0,0,0,0,0,0,0,0,0,0,0,0,0,0,0,0,0,0,0,0,0,0,0,0,0,0,0,0,0,0,0,0,0,0,0,0,0,0,0,0,0,0,0,0,0,0,0,0,0,0,0,0,0,0,0,0,0,0,0,0,0,0,0,0,0,0,0,0,0,0,0,0,0,0,0,0,0,0,0,0,0,0,0,0,0,0,0,0],"id":6,"left_children":[1,3,5,7,9,11,13,15,17,19,21,23,25,27,29,31,33,-1,35,37,39,41,43,45,47,49,-1,51,53,55,57,59,61,63,-1,65,-1,67,69,71,73,75,77,79,81,83,85,87,89,91,93,95,97,99,101,103,105,107,109,111,113,115,117,-1,-1,119,-1,121,123,-1,-1,125,127,129,131,133,135,137,139,141,143,145,147,149,151,153,155,157,159,161,-1,-1,163,165,167,-1,-1,169,171,173,175,-1,177,179,181,183,185,187,189,191,-1,-1,193,195,197,199,-1,201,203,-1,-1,-1,-1,205,-1,-1,-1,-1,207,-1,-1,209,-1,211,213,215,217,219,221,-1,-1,223,225,227,-1,229,231,-1,-1,233,-1,-1,-1,235,237,-1,239,-1,-1,241,-1,-1,-1,-1,-1,243,-1,-1,-1,-1,245,247,-1,249,251,253,255,-1,-1,257,259,-1,-1,261,263,265,-1,267,-1,269,271,273,-1,-1,275,-1,-1,277,-1,279,281,283,-1,285,-1,-1,287,-1,-1,-1,-1,289,291,293,295,-1,-1,297,299,-1,-1,-1,-1,301,303,305,307,309,311,-1,313,-1,-1,-1,315,317,-1,319,321,-1,-1,323,325,327,329,331,333,-1,-1,335,337,339,341,-1,-1,-1,-1,-1,-1,343,-1,345,347,349,351,353,355,357,359,361,363,-1,-1,-1,-1,-1,-1,-1,365,367,369,371,-1,-1,-1,373,-1,-1,-1,-1,-1,375,-1,377,-1,-1,-1,379,-1,-1,381,-1,383,385,-1,387,389,-1,391,-1,-1,-1,-1,-1,393,-1,395,397,399,401,-1,403,-1,405,407,409,-1,-1,-1,411,413,-1,-1,-1,415,417,419,-1,-1,421,423,-1,425,-1,427,429,-1,-1,-1,431,433,435,-1,-1,437,439,-1,-1,-1,-1,441,443,445,447,449,-1,-1,-1,-1,-1,-1,-1,-1,-1,-1,-1,-1,-1,-1,-1,-1,-1,-1,-1,-1,-1,-1,-1,-1,-1,-1,-1,-1,-1,-1,-1,-1,-1,-1,-1,-1,-1,-1,-1,-1,-1,-1,-1,-1,-1,-1,-1,-1,-1,-1,-1,-1,-1,-1,-1,-1,-1,-1,-1,-1,-1,-1,-1,-1,-1,-1,-1,-1,-1,-1,-1,-1,-1,-1,-1,-1,-1,-1,-1,-1,-1,-1,-1,-1,-1,-1],"loss_changes":[6.10533E5,2.40157E5,3.597965E5,2.45465E4,1.160825E5,5.1605312E4,1.79142E5,1.41415E4,1.6212578E3,1.074275E4,4.4284E4,3.4449062E4,5.8551094E3,2.5774125E4,9.0657E4,8.31025E3,1.0794375E3,0E0,2.4010938E2,5.126633E3,1.045225E4,2.071625E4,2.280925E4,1.655625E4,4.6762656E3,2.0459922E3,0E0,7.6438125E3,1.32020625E4,9.81365E4,2.49955E4,4.4264062E3,6.89325E3,1.153125E1,0E0,2.7199219E1,0E0,8.205508E2,2.5483203E2,3.29825E3,2.0530625E3,4.06575E3,4.9378125E2,2.3978312E4,7.1620625E3,3.192211E3,2.7296875E3,3.6480938E3,6.684453E2,8.295508E2,8.2316406E2,1.5750859E3,3.3148125E3,1.1004406E4,1.017375E3,8.915375E3,2.235175E4,1.1293E4,3.2606094E3,1.2973906E3,1.8340781E3,6.6552188E3,4.6745625E3,0E0,0E0,1.19140625E1,0E0,2.6538574E2,5.338574E2,0E0,0E0,2.1E1,3.88625E2,9.637031E2,1.449375E2,2.9194219E3,2.7995E3,4.7478906E2,1.198125E2,9.61775E3,3.5422812E3,1.5695625E3,1.3136602E3,9.818867E2,3.521875E1,1.388625E3,4.1074023E2,1.9414062E2,5.790625E2,3.1486816E1,0E0,0E0,1.4353711E2,4.811328E2,2.637749E2,0E0,0E0,1.6759375E3,3.9662695E2,3.5635938E3,2.94525E3,0E0,1.1057031E2,1.906125E3,3.2328906E2,1.1233625E4,2.9784453E3,3.2825625E3,2.70375E3,1.5044062E3,0E0,0E0,7.390781E2,4.1904053E1,1.201875E3,4.1224375E3,0E0,1.2746094E1,4.749375E2,0E0,0E0,0E0,0E0,1.0541797E2,0E0,0E0,0E0,0E0,2.33125E1,0E0,0E0,1.565625E1,0E0,1.0443281E3,8.829219E2,1.1585703E3,2.2415E3,2.4175781E1,1.5570312E2,0E0,0E0,4.6853125E3,5.1203125E3,4.9720312E2,0E0,8.4696875E2,1.5590137E2,0E0,0E0,5.7159375E2,0E0,0E0,0E0,9.81625E2,4.0642188E2,0E0,7.713574E1,0E0,0E0,4.84125E2,0E0,0E0,0E0,0E0,0E0,2.3073438E2,0E0,0E0,0E0,0E0,8.37375E2,7.2578125E1,0E0,7.6753125E2,5.725E2,2.1011719E1,1.3615625E2,0E0,0E0,2.535E2,1.5995E3,0E0,0E0,1.01571875E3,2.7995E3,5.9346875E2,0E0,2.8663125E3,0E0,2.54425E3,8.984375E1,1.2444531E2,0E0,0E0,2.5182812E2,0E0,0E0,6.3021875E2,0E0,2.0645625E3,4.7228906E2,1.3542969E1,0E0,4.675625E2,0E0,0E0,5.9091797E1,0E0,0E0,0E0,0E0,8.9447266E1,6.641367E2,6.495469E2,6.804961E2,0E0,0E0,1.22325E3,8.98125E2,0E0,0E0,0E0,0E0,3.3788125E3,2.3300781E1,2.0134688E3,7.445625E2,6.09375E0,2.3010693E2,0E0,3.7965625E2,0E0,0E0,0E0,6.938125E2,4.3959375E2,0E0,1.1E2,2.905703E2,0E0,0E0,7.335E2,9.68125E1,5.25E0,1.658418E2,5.3291406E2,6.8090625E2,0E0,0E0,3.9689844E2,1.1881543E2,6.747461E2,4.4098438E2,0E0,0E0,0E0,0E0,0E0,0E0,1.4199375E3,0E0,7.674375E2,1.2717383E2,1.920375E3,7.337383E2,2.1610742E2,2.0839062E2,2.689297E2,1.3234375E3,1.5065E3,4.965E2,0E0,0E0,0E0,0E0,0E0,0E0,0E0,4.1595312E2,5.5776855E1,1.0989688E3,2.290664E2,0E0,0E0,0E0,5.984375E2,0E0,0E0,0E0,0E0,0E0,1.2910938E2,0E0,3.2473438E2,0E0,0E0,0E0,8.66375E2,0E0,0E0,9.075E2,0E0,1.439125E3,3.0578125E1,0E0,3.091875E2,7.3115234E1,0E0,5.416211E1,0E0,0E0,0E0,0E0,0E0,2.7103125E2,0E0,2.3408008E2,6.6421875E1,2.248125E2,2.721875E1,0E0,2.7466797E2,0E0,2.5245312E2,2.2508594E2,4.7839844E1,0E0,0E0,0E0,3.3150146E1,6.0851562E1,0E0,0E0,0E0,8.084375E1,1.5144531E2,7.357617E1,0E0,0E0,9.303516E1,3.3710938E1,0E0,2.0294531E2,0E0,9.494375E2,3.2246875E2,0E0,0E0,0E0,5.2828125E2,1.1804375E3,2.6335352E2,0E0,0E0,6.174414E1,2.3089844E1,0E0,0E0,0E0,0E0,1.0990625E3,3.1975E2,9.275E2,2.150625E2,9.165625E1,0E0,0E0,0E0,0E0,0E0,0E0,0E0,0E0,0E0,0E0,0E0,0E0,0E0,0E0,0E0,0E0,0E0,0E0,0E0,0E0,0E0,0E0,0E0,0E0,0E0,0E0,0E0,0E0,0E0,0E0,0E0,0E0,0E0,0E0,0E0,0E0,0E0,0E0,0E0,0E0,0E0,0E0,0E0,0E0,0E0,0E0,0E0,0E0,0E0,0E0,0E0,0E0,0E0,0E0,0E0,0E0,0E0,0E0,0E0,0E0,0E0,0E0,0E0,0E0,0E0,0E0,0E0,0E0,0E0,0E0,0E0,0E0,0E0,0E0,0E0,0E0,0E0,0E0,0E0,0E0,0E0,0E0,0E0,0E0,0E0,0E0],"parents":[2147483647,0,0,1,1,2,2,3,3,4,4,5,5,6,6,7,7,8,8,9,9,10,10,11,11,12,12,13,13,14,14,15,15,16,16,18,18,19,19,20,20,21,21,22,22,23,23,24,24,25,25,27,27,28,28,29,29,30,30,31,31,32,32,33,33,35,35,37,37,38,38,39,39,40,40,41,41,42,42,43,43,44,44,45,45,46,46,47,47,48,48,49,49,50,50,51,51,52,52,53,53,54,54,55,55,56,56,57,57,58,58,59,59,60,60,61,61,62,62,65,65,67,67,68,68,71,71,72,72,73,73,74,74,75,75,76,76,77,77,78,78,79,79,80,80,81,81,82,82,83,83,84,84,85,85,86,86,87,87,88,88,89,89,92,92,93,93,94,94,97,97,98,98,99,99,100,100,102,102,103,103,104,104,105,105,106,106,107,107,108,108,109,109,112,112,113,113,114,114,115,115,117,117,118,118,123,123,128,128,131,131,133,133,134,134,135,135,136,136,137,137,138,138,141,141,142,142,143,143,145,145,146,146,149,149,153,153,154,154,156,156,159,159,165,165,170,170,171,171,173,173,174,174,175,175,176,176,179,179,180,180,183,183,184,184,185,185,187,187,189,189,190,190,191,191,194,194,197,197,199,199,200,200,201,201,203,203,206,206,211,211,212,212,213,213,214,214,217,217,218,218,223,223,224,224,225,225,226,226,227,227,228,228,230,230,234,234,235,235,237,237,238,238,241,241,242,242,243,243,244,244,245,245,246,246,249,249,250,250,251,251,252,252,259,259,261,261,262,262,263,263,264,264,265,265,266,266,267,267,268,268,269,269,270,270,278,278,279,279,280,280,281,281,285,285,291,291,293,293,297,297,300,300,302,302,303,303,305,305,306,306,308,308,314,314,316,316,317,317,318,318,319,319,321,321,323,323,324,324,325,325,329,329,330,330,334,334,335,335,336,336,339,339,340,340,342,342,344,344,345,345,349,349,350,350,351,351,354,354,355,355,360,360,361,361,362,362,363,363,364,364],"right_children":[2,4,6,8,10,12,14,16,18,20,22,24,26,28,30,32,34,-1,36,38,40,42,44,46,48,50,-1,52,54,56,58,60,62,64,-1,66,-1,68,70,72,74,76,78,80,82,84,86,88,90,92,94,96,98,100,102,104,106,108,110,112,114,116,118,-1,-1,120,-1,122,124,-1,-1,126,128,130,132,134,136,138,140,142,144,146,148,150,152,154,156,158,160,162,-1,-1,164,166,168,-1,-1,170,172,174,176,-1,178,180,182,184,186,188,190,192,-1,-1,194,196,198,200,-1,202,204,-1,-1,-1,-1,206,-1,-1,-1,-1,208,-1,-1,210,-1,212,214,216,218,220,222,-1,-1,224,226,228,-1,230,232,-1,-1,234,-1,-1,-1,236,238,-1,240,-1,-1,242,-1,-1,-1,-1,-1,244,-1,-1,-1,-1,246,248,-1,250,252,254,256,-1,-1,258,260,-1,-1,262,264,266,-1,268,-1,270,272,274,-1,-1,276,-1,-1,278,-1,280,282,284,-1,286,-1,-1,288,-1,-1,-1,-1,290,292,294,296,-1,-1,298,300,-1,-1,-1,-1,302,304,306,308,310,312,-1,314,-1,-1,-1,316,318,-1,320,322,-1,-1,324,326,328,330,332,334,-1,-1,336,338,340,342,-1,-1,-1,-1,-1,-1,344,-1,346,348,350,352,354,356,358,360,362,364,-1,-1,-1,-1,-1,-1,-1,366,368,370,372,-1,-1,-1,374,-1,-1,-1,-1,-1,376,-1,378,-1,-1,-1,380,-1,-1,382,-1,384,386,-1,388,390,-1,392,-1,-1,-1,-1,-1,394,-1,396,398,400,402,-1,404,-1,406,408,410,-1,-1,-1,412,414,-1,-1,-1,416,418,420,-1,-1,422,424,-1,426,-1,428,430,-1,-1,-1,432,434,436,-1,-1,438,440,-1,-1,-1,-1,442,444,446,448,450,-1,-1,-1,-1,-1,-1,-1,-1,-1,-1,-1,-1,-1,-1,-1,-1,-1,-1,-1,-1,-1,-1,-1,-1,-1,-1,-1,-1,-1,-1,-1,-1,-1,-1,-1,-1,-1,-1,-1,-1,-1,-1,-1,-1,-1,-1,-1,-1,-1,-1,-1,-1,-1,-1,-1,-1,-1,-1,-1,-1,-1,-1,-1,-1,-1,-1,-1,-1,-1,-1,-1,-1,-1,-1,-1,-1,-1,-1,-1,-1,-1,-1,-1,-1,-1,-1],"split_conditions":[-2.3488331E-1,-1.0049291E0,-5.3408164E-1,1E0,3.0239928E-1,5.986756E-1,-1.1519421E0,3.972067E0,-1.2789513E0,-5.381821E-1,-1.0071343E0,8.780667E-1,3.0363717E0,2.1938202E-1,4.6641514E-1,-5.381821E-1,1.2329684E0,5.2557325E0,1.7019501E0,2.4532707E0,3.3202904E-1,1.4699681E0,1.0075778E0,-1.1519421E0,-1.0559262E-1,-3.2836308E0,6.0700727E0,-1.5563838E0,1E0,1.5371503E-2,4.7890475E-1,2.9728281E-1,1E0,1.6751043E0,1.0502894E1,1E0,1.345811E0,-1.5191938E-1,-1.1724342E0,-8.0271494E-1,-9.594001E-1,1E0,2.4532707E0,6.8373615E-1,-1.121651E-1,1E0,-1.0559262E-1,-1.4040219E0,-1.3955411E0,9.096479E-1,3.8984308E-1,-1.21316984E-1,7.6685846E-1,1.9372367E0,-1.4539843E0,9.467524E-1,5.986756E-1,6.038915E-2,3.972067E0,-4.7660567E-2,-1.1945282E0,1E0,-1.1945282E0,7.9558654E0,3.0735805E0,1E0,1.3495858E0,-3.2459465E-1,1.719819E0,5.8275447E0,4.3246417E0,-1.6823325E-1,-2.851197E-1,-1.1207007E0,2.4532707E0,-5.638901E-1,-1.2789513E0,-6.956717E-1,1E0,-7.288044E-1,9.467524E-1,3.0098593E-1,-1.5708708E0,1E0,4.2321393E-1,-3.0463915E-2,1.1510082E0,8.837449E-1,1.8005674E-1,-1.0641251E0,3.0570924E0,3.7608614E0,1E0,1.9372367E0,5.376578E-1,1.6956913E1,9.593389E0,-2.4383383E0,9.467524E-1,-2.5485656E0,1.2637906E-2,5.221876E0,-1.2789513E0,-4.9733377E-1,1.4699681E0,2.4209528E-1,3.0363717E0,5.7712585E-1,1.1502199E0,1.212009E0,7.6233354E0,4.241376E0,-2.0758401E-1,9.3280184E-1,1E0,1.8242612E-1,7.9829097E0,1E0,1E0,3.9683816E0,1.415714E0,4.9919095E0,2.6654477E0,2.1828148E-1,3.4540987E0,5.1015334E0,4.868552E0,4.7291307E0,-1.3453819E-1,7.78257E0,6.1275783E0,-1.1461068E-1,6.78704E0,7.257062E-2,1.1939603E0,-1.5708708E0,9.679684E-1,1.3106012E0,1E0,6.0533776E0,2.003603E0,-1.12278424E-1,5.6482464E-1,-1.121651E-1,4.834891E0,5.5935746E-1,3.972067E0,3.1539457E0,4.7660155E0,-1.7527254E0,2.252337E0,5.6505265E0,4.3769126E0,1E0,1E0,3.847748E0,-8.782077E-1,2.7856047E0,1.9555588E0,1.17209E0,1.6476153E0,1.1744606E0,2.048787E0,5.963197E0,2.749227E0,-7.591187E-1,3.830009E0,6.304343E0,1.647023E0,3.9174387E0,-5.0903237E-1,-8.764169E-1,6.125856E0,1.0597728E0,1E0,1.3550453E0,1.1781882E0,5.5072837E0,7.6736636E0,-6.922903E-1,1E0,4.443334E0,5.7314E0,-1.1138033E-1,-1.1138033E-1,1.5837198E-1,6.025649E0,-1.2789513E0,3.9448442E0,1.2232138E-1,-8.7095547E-1,-1.9011651E0,5.4309006E0,4.6658325E0,-1.9116055E0,1.1606776E0,2.8043997E0,8.148771E-1,3.426159E0,-9.902617E-1,1.409734E0,-5.333319E-1,2.8573384E0,2.3246884E-1,1.977392E0,2.1829236E0,1E0,4.379738E0,4.6024194E0,5.391704E0,4.538139E0,3.0376607E-1,1E0,8.586175E-1,-5.8992666E-1,4.223216E0,6.3300166E0,6.0978436E-1,-6.922903E-1,4.3303075E0,1.51102E0,4.840121E0,5.8044577E0,5.374887E-1,1.9105529E0,1.719819E0,-1.126431E-1,-7.88034E-1,-1.5708708E0,3.4666812E0,-1.1671034E0,3.6817195E0,5.6464996E0,2.52006E0,-5.0477867E0,-3.2045558E-1,4.5005383E0,9.5614806E-2,1E0,2.0558429E0,2.9774146E0,-5.4911643E-1,-1.13671295E-1,-8.782077E-1,-1.6098925E-1,9.467524E-1,-1.2853903E0,4.701482E0,3.1300893E0,2.7541265E-1,3.6253843E-1,1E0,-1.3089929E0,7.8134217E0,4.563193E0,5.5080953E0,3.7782273E0,3.0168183E0,3.3412986E0,-1.5708708E0,6.5729537E0,1E0,-1.5708708E0,-1.620469E-2,-1.5708708E0,3.017905E-1,2.1274142E0,-1.620469E-2,-8.579161E-1,-5.063729E-1,1.0556047E0,3.7295558E0,4.015263E0,1.9451824E0,4.447295E0,3.7224967E0,6.90927E0,3.8044436E0,1E0,-4.604494E-1,-1.2321882E-1,-1.14209875E-1,3.850786E0,5.930723E0,4.586583E0,-2.1378064E-1,4.321183E0,2.783031E0,1.130917E0,1.3163247E0,4.4288955E0,-9.6251565E-1,4.162109E0,1E0,2.9747868E0,7.643649E0,4.601029E0,-5.063729E-1,3.6248143E0,3.3329558E0,5.376578E-1,3.6411178E0,6.536666E-1,9.8930544E-1,2.1877022E0,-7.109031E-1,-1.7176008E0,2.6565042E0,6.362009E-1,2.5185263E0,2.683229E0,3.0267823E0,5.173966E0,2.4333105E0,1.4855627E0,5.744998E0,7.6685846E-1,-9.860372E-2,3.0098593E-1,-1.3453819E-1,2.0362556E0,-3.2045558E-1,3.6094217E0,1E0,1E0,6.790138E-1,1.2609266E0,4.690023E0,3.4188251E0,-7.7506495E-3,6.472057E-1,3.2846978E0,6.2833943E0,8.352683E0,1E0,6.892034E-1,4.6495423E-1,3.192411E0,5.175046E0,-4.7240934E-1,9.0078E-1,2.3526604E0,3.1992235E0,4.7220163E0,-6.922903E-1,1.4962616E-2,5.34377E0,3.561344E0,5.483463E0,1.0939888E-1,-3.2045558E-1,-3.2045558E-1,4.0235405E0,4.06305E0,-1.1440572E-1,-1.25913005E-2,1.6165086E0,3.6484346E0,4.9978523E0,5.8996377E0,-9.860372E-2,8.086514E-1,-1.620469E-2,-1.0641251E0,5.1379178E-2,5.5074873E0,3.4505708E0,4.163057E0,2.1967304E0,5.8034606E0,6.8671227E0,4.68362E0,6.006796E0,7.815014E0,6.9468684E0,5.290179E0,7.502217E0,4.5956235E0,3.9946415E0,3.774542E0,3.9802496E0,3.7449777E0,2.9381225E0,5.87109E0,4.305752E0,5.9828057E0,3.026498E0,4.91651E0,3.59859E0,2.9186084E0,5.2594247E0,4.4302998E0,3.1589751E0,2.7009819E0,3.7702954E0,4.042187E0,3.0579388E0,2.0228121E0,1.8996491E0,2.0865464E0,2.4700465E0,1.7306417E0,1.8354783E0,1.8255537E0,2.1460934E0,1.0990684E0,1.7440459E0,1.9565011E0,1.300693E0,1.4160936E0,1.7455932E0,1.7614223E0,5.328904E0,3.3185093E0,2.6654074E0,7.081585E0,2.5532243E0,5.393737E0,2.4454412E0,3.8563614E0,5.1932793E0,3.5567946E0,5.2763743E0,3.9185832E0,2.8932407E0,3.6981695E0,2.054761E0,3.3556058E0,3.6607118E0,2.906961E0,2.6640048E0,2.329894E0,2.687875E0,2.0272858E0,2.2315567E0,2.3614688E0,3.2188783E0,3.2699087E0,2.3508732E0,4.451675E0,3.770355E0,3.1487799E0,2.898183E0,3.4081018E0,3.0877316E0,3.7488585E0,3.5246193E0,3.144974E0,3.4331899E0,3.075864E0,3.2651072E0],"split_indices":[4,5,11,23,11,14,5,14,6,11,4,4,14,4,11,11,12,0,0,14,14,14,12,5,16,5,0,9,33,11,14,10,25,10,0,95,0,14,6,4,6,23,14,11,16,33,16,8,0,10,9,4,0,14,0,14,14,4,14,12,14,33,14,0,0,97,0,9,14,0,0,0,0,4,14,5,6,15,67,8,14,14,0,23,7,4,12,0,14,7,0,0,26,14,9,0,0,14,14,5,11,0,6,10,14,4,14,11,10,14,0,0,8,15,26,0,0,80,76,0,0,0,0,14,0,0,0,0,7,0,0,16,0,17,10,0,10,10,23,0,0,16,11,16,0,